tree
version=v3
num_class=1
num_tree_per_iteration=1
label_index=0
max_feature_idx=8
objective=regression_l1
feature_names=bid_size ask_size bid_price ask_price wap imbalance_buy_sell_flag imbalance_size matched_size reference_price
feature_infos=[57.090000000000003:674329.75] [56.07:1191052.8] [0.99432200000000004:1.008453] [0.99697800000000003:1.009587] [0.99459500000000001:1.00902] [-1:1] [0:365273465.57999998] [80691.869999999995:316063973] [0.99432200000000004:1.0086040000000001]
tree_sizes=2712 2706 2709 2693 2718 2693 2726 2720 2739 2725 2731 2699 2724 2727 2717 2740 2696 2740 2746 2717 2722 2721 2707 2712 2700 2732 2724 2736 2715 2704 2710 2738 2718 2726 2757 2738 2728 2696 2720 2723 2734 2708 2726 2750 2712 2735 2746 2695 2738 2752 2749 2759 2729 2763 2718 2755 2712 2736 2734 2727 2735 2740 2722 2729 2732 2715 2733 2747 2759 2735 2735 2737 2723 2746 2754 2739 2744 2743 2743 2733 2745 2664 2758 2754 2737 2720 2734 2744 2726 2727 2715 2723 2724 2712 2758 2712 2714 2716 2748 2729 2739 2725 2732 2740 2721 2732 2722 2732 2735 2722 2736 2738 2729 2746 2745 2756 2725 2724 2740 2746 2739 2746 2749 2735 2721 2759 2736 2747 2740 2721 2741 2752 2733 2731 2741 2708 2730 2728 2720 2735 2756 2733 2752 2729 2727 2733 2754 2736 2729 2720 2745 2762 2776 2749 2756 2728 2736 2712 2748 2761 2732 2720 2756 2747 2747 2721 2745 2761 2730 2749 2732 2757 2771 2750 2721 2745 2775 2723 2744 2742 2776 2761 2758 2745 2764 2751 2735 2752 2732 2760 2745 2714 2767 2724 2725 2712 2724 2753 2764 2749 2757 2769 2777 2743 2769 2746 2753 2739 2723 2749 2760 2758 2738 2750 2726 2732 2760 2745 2759 2751 2730 2752 2749 2774 2751 2766 2761 2731 2773 2782 2747 2781 2762 2738 2746 2756 2721 2761 2752 2800 2745 2759 2726 2766 2757 2757 2727 2753 2742 2735 2745 2741 2755 2770 2759 2748 2718 2747 2776 2731 2748 2743 2737 2754 2775 2706 2741 2759 2757 2756 2763 2775 2792 2743 2778 2732 2776 2750 2758 2778 2740 2771 2754 2767 2764 2767 2775 2743 2753 2773 2716 2724 2750 2757 2733 2749 2780 2773 2750 2783 2741 2747 2749 2733 2746 2733 2775 2779 2757 2751 2717 2749 2745 2794 2786 2768 2772 2730 2762 2741 2746 2736 2753 2778 2772 2755 2764 2768 2759 2755 2775 2782 2788 2755 2781 2731 2762 2771 2760 2761 2785 2737 2773 2740 2752 2772 2758 2776 2759 2763 2743 2754 2770 2789 2759 2746 2741 2762 2749 2758 2777 2762 2774 2762 2737 2754 2774 2757 2784 2728 2782 2776 2784 2747 2784 2782 2750 2778 2772 2749 2746 2786 2753 2750 2749 2755 2773 2759 2767 2806 2765 2774 2762 2764 2783 2765 2755 2778 2782 2781 2754 2756 2753 2764 2751 2773 2758 2788 2742 2783 2773 2759 2769 2760 2758 2743 2767 2778 2750 2769 2757 2771 2762 2715 2762 2778 2769 2782 2765 2783 2791 2755 2745 2783 2772 2778 2788 2781 2781 2793 2777 2782 2781 2750 2759 2774 2755 2775 2771 2765 2769 2774 2766 2753 2741 2753 2772 2751 2777 2766 2752 2785 2751 2772 2745 2768 2790 2778 2791 2740 2786 2800 2771 2763 2748 2795 2778 2768 2755 2779 2752 2779 2770 2748 2732 2754 2797 2775 2771 2784 2755 2789 2788 2759 2754 2734 2766 2770 2734 2783

Tree=0
num_leaves=31
num_cat=0
split_feature=6 0 1 1 5 4 2 7 3 7 8 3 7 6 7 7 3 7 3 0 6 0 3 8 5 7 1 8 7 8
split_gain=40.5055 18.3835 17.3863 16.8036 15.3587 14.6051 16.3217 12.7225 12.4633 11.0755 10.4354 11.0506 17.1435 10.1407 8.48562 15.0403 13.7734 12.6282 11.0961 10.6667 10.0762 8.49782 8.33017 11.5643 8.16697 8.04367 7.72845 12.0825 10.3421 7.93407
threshold=5164757.7300000014 3433.1200000000003 27617.625000000004 11958.495000000001 -1.0000000180025095e-35 1.0013370000000001 1.0009545000000002 14382160.160000002 1.0001550000000001 7181797.8150000004 1.0001305000000003 1.0006855000000001 2088003.3350000002 23606789.680000003 4238749.5150000006 9626599.0250000022 1.0007115000000002 21270596.075000007 1.0010955000000001 27443.480000000003 1419487.9200000002 23951.665000000005 1.0014250000000002 1.0008505000000001 -1.0000000180025095e-35 1795145.6050000002 56699.000000000007 1.0005040000000001 3765204.3400000003 1.0002645000000003
decision_type=2 2 2 2 2 2 2 2 2 2 2 2 2 2 2 2 2 2 2 2 2 2 2 2 2 2 2 2 2 2
left_child=1 4 7 10 -1 6 14 8 -2 -10 -3 -12 25 -9 18 21 17 20 26 -20 -17 -16 23 -14 -8 -13 27 28 29 -5
right_child=2 3 -4 5 -6 -7 24 13 9 -11 11 12 22 -15 15 16 -18 -19 19 -21 -22 -23 -24 -25 -26 -27 -28 -29 -30 -31
leaf_value=-0.26631355285644531 -0.45984983444213867 -0.50181150436401367 0.11014938354492188 -0.25033950805664062 0.090181827545166016 -0.71582198143005371 -0.20480155944824219 -0.29283761978149414 -0.24235248565673828 0.12314319610595703 -0.17082691192626953 -0.31483173370361328 -0.59783458709716797 -0.018835067749023438 -0.30285120010375977 -0.14984607696533203 0.17821788787841797 0.0051259994506835938 0.025629997253417969 -0.48330426216125488 -0.51081180572509766 -0.45180320739746094 -1.1368095874786377 -0.1958310604095459 0.15020370483398438 0.23221969604492188 0.25266408920288086 0.062227249145507812 0.0076889991760253906 -0.58084726333618164
leaf_weight=117 26 178 232 91 165 87 20 108 23 72 95 44 58 27 70 28 34 31 27 27 32 100 43 41 38 24 47 62 27 26
leaf_count=117 26 178 232 91 165 87 20 108 23 72 95 44 58 27 70 28 34 31 27 27 32 100 43 41 38 24 47 62 27 26
internal_value=-0.209808 -0.217943 -0.184808 -0.223223 -0.194915 -0.213824 -0.208748 -0.202777 -0.17923 -0.16244 -0.237759 -0.22653 -0.239332 -0.223882 -0.213629 -0.225741 -0.199408 -0.219698 -0.201991 -0.243142 -0.246475 -0.245102 -0.259104 -0.243142 -0.158084 -0.198044 -0.193208 -0.201556 -0.217447 -0.230321
internal_weight=0 1512 488 1230 282 747 660 256 121 95 483 305 210 135 602 295 125 91 307 54 60 170 142 99 58 68 253 206 144 117
internal_count=2000 1512 488 1230 282 747 660 256 121 95 483 305 210 135 602 295 125 91 307 54 60 170 142 99 58 68 253 206 144 117
is_linear=0
shrinkage=1


Tree=1
num_leaves=31
num_cat=0
split_feature=6 1 4 7 7 7 7 6 1 0 1 6 6 7 2 2 7 7 6 7 3 7 7 1 0 7 4 8 6 2
split_gain=32.4146 20.5068 16.4332 16.3464 20.6444 45.1129 18.1106 27.4358 13.8152 13.567 13.4366 13.1245 20.2944 12.2077 13.4687 11.8127 12.6085 10.8891 13.9351 10.8102 14.7313 10.0489 10.1346 9.61618 8.58624 8.55274 8.52491 18.8751 11.2718 8.17578
threshold=6248285.870000001 27617.625000000004 0.9985750000000001 21270596.075000007 4071235.1750000003 3645630.1400000006 1692703.0450000002 144760.16500000001 13672.480000000001 9891.9200000000019 16317.475000000002 3175106.5400000005 367781.36500000005 716924.54000000015 0.99992650000000005 0.99998750000000014 7777857.7500000009 16925205.400000002 23606789.680000003 9626599.0250000022 1.0007640000000002 15087192.675000003 43435070.895000003 3589.0400000000004 943.52500000000009 2960077.3700000006 1.0005745000000001 1.0006305000000002 851968.04000000015 1.0010455000000003
decision_type=2 2 2 2 2 2 2 2 2 2 2 2 2 2 2 2 2 2 2 2 2 2 2 2 2 2 2 2 2 2
left_child=2 17 -1 4 5 6 7 13 -9 15 -11 12 24 -4 -15 -6 -17 23 -19 -12 -21 -3 -23 -2 -8 26 -14 -28 -29 -27
right_child=1 21 3 -5 9 -7 11 8 -10 10 19 -13 25 14 -16 16 -18 18 -20 20 -22 22 -24 -25 -26 29 27 28 -30 -31
leaf_value=1.2540042400360107 -0.017026066780090332 0.46701431274414062 0.67698955535888672 0.23674368858337402 0.11460781097412109 0.32708644866943359 0.66844820976257324 -0.5578458309173584 -0.21594762802124023 -0.25684237480163574 -0.22124946117401123 -0.28126835823059082 0.29892325401306152 0.36258399486541748 -1.3975381851196289 -0.34034848213195801 0.050964951515197754 -0.10622739791870117 0.17187595367431641 -0.10601282119750977 0.30055642127990723 -0.026541948318481445 0.29398202896118164 0.27772188186645508 -0.37071108818054199 -0.19548237323760986 -0.38921833038330078 0.4614412784576416 0.012044608592987061 0.30228346586227417
leaf_weight=36 39 86 30 77 84 105 21 60 94 158 165 36 85 29 22 59 67 71 27 57 27 55 61 92 173 57 20 41 43 23
leaf_count=36 39 86 30 77 84 105 21 60 94 158 165 36 85 29 22 59 67 71 27 57 27 55 61 92 173 57 20 41 43 23
internal_value=0 0.02529 -0.0056724 -0.0072407 -0.00961538 0.000595948 -0.00817439 -0.0310638 -0.0558442 -0.0235008 -0.0341523 0.00260521 0.00712743 0.0160494 -0.0137255 -0.00285714 -0.0222222 0.00480349 -0.0204082 -0.0196787 0.00952381 0.0485149 0.0293103 0.0236641 -0.0175258 0.0249071 0.0365079 0.0173077 0.0380952 -0.0025
internal_weight=0 431 1569 1533 1456 839 734 235 154 617 407 499 463 81 51 210 126 229 98 249 84 202 116 131 194 269 189 104 84 80
internal_count=2000 431 1569 1533 1456 839 734 235 154 617 407 499 463 81 51 210 126 229 98 249 84 202 116 131 194 269 189 104 84 80
is_linear=0
shrinkage=0.1


Tree=2
num_leaves=31
num_cat=0
split_feature=1 0 6 2 7 5 3 7 7 7 1 7 7 6 1 7 6 0 6 8 7 7 4 2 4 3 7 1 1 0
split_gain=28.3569 23.6411 23.1651 16.3145 15.5339 12.9954 12.001 13.0987 17.6647 15.2917 11.7245 11.6505 12.1021 17.4533 9.8327 9.30513 9.02436 7.96611 7.73618 8.26999 12.4054 7.51262 10.1175 7.42736 9.3427 7.38008 7.81768 6.82488 11.4 6.80863
threshold=13064.600000000002 2099.3050000000007 6248285.870000001 0.99943950000000015 14382160.160000002 -1.0000000180025095e-35 1.0017570000000002 967787.97000000009 4562579.4750000006 7560722.1750000007 57920.885000000002 21270596.075000007 15344219.260000002 4306094.3350000009 43491.270000000011 10722904.255000001 10852760.720000001 5975.5200000000013 8323451.665000001 1.0013560000000001 2493805.0600000005 3556448.1950000003 1.0002270000000002 1.0008160000000001 1.0013370000000001 1.0009325000000002 4071235.1750000003 10323.000000000002 3589.0400000000004 8394.4300000000021
decision_type=2 2 2 2 2 2 2 2 2 2 2 2 2 2 2 2 2 2 2 2 2 2 2 2 2 2 2 2 2 2
left_child=1 27 5 29 -4 6 7 -2 21 -10 -11 12 13 15 -6 17 18 -7 19 -5 -21 22 -9 25 -25 26 -19 28 -1 -3
right_child=2 3 4 16 14 11 -8 8 9 10 -12 -13 -14 -15 -16 -17 -18 23 -20 20 -22 -23 -24 24 -26 -27 -28 -29 -30 -31
leaf_value=0.073881149291992188 -0.31164884567260742 -0.0022169947624206543 0.39778232574462891 -0.0646209716796875 -0.050209462642669678 0.34914962947368622 -0.7722887396812439 0.20935535430908203 -0.58226913213729858 -0.11872082948684692 0.3575858473777771 0.3727799654006958 -0.26030182838439941 -0.49543023109436035 0.21909803152084351 0.4021376371383667 0.11934936046600342 0.23542746901512146 -0.1170957088470459 -0.091392397880554199 -0.99723339080810547 0.13341881334781647 -0.12594036757946014 0.28182871639728546 -0.013661235570907593 -0.27215495705604553 -0.061613619327545166 -0.17001569271087646 0.50052165985107422 -0.4541391134262085
leaf_weight=60 22 27 127 406 79 91 30 76 42 54 20 36 40 28 89 42 55 85 20 29 32 43 73 43 38 49 96 20 54 94
leaf_count=60 22 27 127 406 79 91 30 76 42 54 20 36 40 28 89 42 55 85 20 29 32 43 73 43 38 49 96 20 54 94
internal_value=0 -0.0144291 0.00989194 -0.0221719 0.0342373 0.00198238 -0.0127778 -0.00727273 -0.00194805 -0.0327586 -0.00540541 0.0116788 0.0078125 0.0122881 0.0142857 0.0171171 -0.0147601 0.0124378 -0.0190965 -0.0164882 -0.0508197 0.0166667 0.00604027 0.00482315 0.0308642 -0.00434783 0.00497238 0.0238806 0.0333333 -0.0553719
internal_weight=0 797 1203 663 295 908 360 330 308 116 74 548 512 472 168 444 542 402 487 467 61 192 149 311 81 230 181 134 114 121
internal_count=2000 797 1203 663 295 908 360 330 308 116 74 548 512 472 168 444 542 402 487 467 61 192 149 311 81 230 181 134 114 121
is_linear=0
shrinkage=0.1


Tree=3
num_leaves=31
num_cat=0
split_feature=7 0 1 7 6 4 2 6 5 6 1 3 4 2 7 7 3 0 1 1 3 6 5 8 4 6 6 0 6 6
split_gain=22.3892 19.0996 25.0159 14.697 14.5883 16.6282 12.8672 10.7041 12.342 13.7555 10.7148 10.2002 10.0405 9.48029 9.14551 9.25979 8.7188 8.15638 7.84049 7.19601 7.08762 6.97119 10.5176 6.84046 6.53556 6.32052 6.49317 6.21075 6.09524 5.85728
threshold=44221262.905000009 2099.3050000000007 13064.600000000002 37911679.350000001 2946085.3800000004 1.0014235000000002 0.99943950000000015 1971392.3500000003 1.0000000180025095e-35 1419487.9200000002 57311.380000000012 1.0009435000000002 1.0019825000000002 1.0002755000000001 3587127.7850000006 14382160.160000002 1.0008915 1627.8650000000002 18947.940000000006 46152.445000000007 1.0001825000000002 5164757.7300000014 -1.0000000180025095e-35 1.0002700000000002 0.99998000000000009 6588226.3050000006 10150787.230000002 8394.4300000000021 1699050.8450000002 40109.610000000008
decision_type=2 2 2 2 2 2 2 2 2 2 2 2 2 2 2 2 2 2 2 2 2 2 2 2 2 2 2 2 2 2
left_child=1 17 6 4 5 7 27 8 10 19 18 20 -7 -12 -6 -16 23 21 29 -10 -2 22 -1 -9 -8 -17 -27 -3 -11 -4
right_child=11 2 3 -5 14 12 24 16 9 28 13 -13 -14 -15 15 25 -18 -19 -20 -21 -22 -23 -24 -25 -26 26 -28 -29 -30 -31
leaf_value=-0.097114458680152893 0.088715225458145142 -0.0019952952861785889 0.47310411185026169 -0.43781524896621704 -0.23680950701236725 -0.60505685210227966 0.35793930292129517 -0.034417524933815002 0.2920854389667511 -0.059338994324207306 0.18340291082859039 -0.10725989937782288 -0.073659338057041168 -0.024471111595630646 0.30704415962100029 0.19800271093845367 0.0666976198554039 0.43406255543231964 -0.15431347489356995 0.32303425669670105 0.27563539147377014 0.2805180549621582 0.19846314191818237 -0.56813781335949898 -0.095651984214782715 -0.18567138910293579 0.259706050157547 -0.41468566656112671 0.11216845363378525 -0.053287956863641739
leaf_weight=87 30 27 20 21 39 32 22 25 78 21 45 28 21 48 165 37 20 41 193 59 70 54 102 27 491 31 23 93 21 29
leaf_count=87 30 27 20 21 39 32 22 25 78 21 45 28 21 48 165 37 20 41 193 59 70 54 102 27 491 31 23 93 21 29
internal_value=0 -0.00416667 -0.00843829 0.0017801 0.00364026 -0.00485133 -0.0238547 0 0.00505837 0.026257 -0.00626866 0.0390625 -0.0584906 0.0225806 0.0220339 0.0289063 -0.0361111 0.0197183 -0.0173554 0.0416058 0.054 0.0127572 0.0037037 -0.0576923 -0.0169591 0.0032967 -0.0185185 -0.0533333 -0.0238095 0.0183673
internal_weight=0 1872 1588 955 934 639 633 586 514 179 335 128 53 93 295 256 72 284 242 137 100 243 189 52 513 91 54 120 42 49
internal_count=2000 1872 1588 955 934 639 633 586 514 179 335 128 53 93 295 256 72 284 242 137 100 243 189 52 513 91 54 120 42 49
is_linear=0
shrinkage=0.1


Tree=4
num_leaves=31
num_cat=0
split_feature=6 4 8 4 6 8 1 7 3 7 1 7 4 4 7 6 6 2 7 6 6 3 0 0 8 5 7 2 7 5
split_gain=20.899 12.1536 14.0354 12.7757 15.8972 13.796 12.1251 10.5026 9.05026 8.25714 9.44034 13.689 9.26535 7.66505 11.9048 6.76749 12.3188 6.706 8.97651 6.45894 10.1053 9.69903 16.5817 14.2187 11.5854 8.80524 10.5054 8.60555 7.77778 7.7766
threshold=5164757.7300000014 0.9985750000000001 0.99995550000000011 1.0013135000000002 2775239.0050000004 1.0012875000000003 13064.600000000002 4365949.3000000007 1.0002955000000002 716924.54000000015 3589.0400000000004 4614039.2000000002 0.99949500000000013 1.0008545000000002 12996074.015000002 6871573.705000001 11433231.945000002 1.0009085000000002 15344219.260000002 1971392.3500000003 2837421.2350000008 1.0009500000000002 86161.500000000015 63192.460000000014 1.0005040000000001 -1.0000000180025095e-35 4614039.2000000002 1.0003375000000003 1978303.5650000002 1.0000000180025095e-35
decision_type=2 2 2 2 2 2 2 2 2 2 2 2 2 2 2 2 2 2 2 2 2 2 2 2 2 2 2 2 2 2
left_child=1 -1 9 5 7 19 8 -5 -2 -3 -11 -12 -13 14 -8 -16 -17 -15 -19 21 29 23 25 24 27 26 28 -4 -23 -21
right_child=6 2 3 4 -6 -7 13 -9 -10 10 11 12 -14 17 15 16 -18 18 -20 20 -22 22 -24 -25 -26 -27 -28 -29 -30 -31
leaf_value=1.0738425388932229 -0.13645225167274475 -0.23251811265945435 -0.0027287047356367115 -0.36423841714859012 0.12489709034562112 0.3291951656341553 0.35093232281506065 -0.47711884826421741 0.045061582326889039 -0.41025435477495198 0.092146101593971255 0.046152891218662263 -0.21107772588729859 -0.46863648742437364 0.40766676068305974 -0.16813717484474183 0.23256936967372896 0.28384992890059951 -0.20992145538330079 -0.03142890762537718 0.0055899262428283697 -0.24201253652572632 -0.21306112706661226 0.34191307723522191 0.19499556720256805 0.15480777025222781 -0.32339867651462556 -0.17661066576838494 0.14029390141367912 -0.35364374034106733
leaf_weight=36 44 28 257 130 34 53 77 30 105 73 134 32 76 22 32 38 95 53 22 41 118 20 32 48 147 87 30 26 36 44
leaf_count=36 44 28 257 130 34 53 77 30 105 73 134 32 76 22 32 38 95 53 22 41 118 20 32 48 147 87 30 26 36 44
internal_value=0 -0.00740741 -0.00880759 -0.00344219 -0.0268041 0.00138445 0.0163934 -0.04 -0.00738255 -0.0265306 -0.0219048 -0.0123967 -0.0388889 0.0268437 0.0363636 0.0212121 0.0112782 0.00309278 0.0173333 -0.00158014 -0.0172414 0.00307467 -0.015122 0.0108787 0.00511628 -0.00289017 -0.0255814 -0.00671378 0 -0.0435294
internal_weight=0 1512 1476 1133 194 939 488 160 149 343 315 242 108 339 242 165 133 97 75 886 203 683 205 478 430 173 86 283 56 85
internal_count=2000 1512 1476 1133 194 939 488 160 149 343 315 242 108 339 242 165 133 97 75 886 203 683 205 478 430 173 86 283 56 85
is_linear=0
shrinkage=0.1


Tree=5
num_leaves=31
num_cat=0
split_feature=6 0 5 6 1 0 3 7 4 1 3 3 8 8 3 3 2 0 1 7 2 3 1 0 7 6 6 5 0 6
split_gain=16.7115 14.8165 15.3926 16.8967 12.708 12.2961 9.21385 8.70354 6.96628 6.51252 6.07462 5.80016 12.5837 9.05277 6.96528 15.1666 13.7643 10.9693 8.39189 6.25809 8.78071 7.87826 9.84876 7.87901 5.72598 6.57625 5.52341 5.1858 8.25529 4.7878
threshold=11433231.945000002 4971.8750000000009 -1.0000000180025095e-35 593177.6050000001 11958.495000000001 271.95000000000005 1.0001035000000003 10379015.570000002 1.0014425000000002 818.90500000000009 1.0002890000000002 1.0017570000000002 1.0013200000000004 1.0018935000000002 1.000955 1.0008355000000002 1.00092 22774.400000000005 28801.065000000006 4148202.6650000005 1.0003765000000002 1.0006890000000002 18947.940000000006 27011.065000000006 5193091.2500000009 100197.44500000002 409741.39000000007 -1.0000000180025095e-35 41336.160000000011 28114319.385000002
decision_type=2 2 2 2 2 2 2 2 2 2 2 2 2 2 2 2 2 2 2 2 2 2 2 2 2 2 2 2 2 2
left_child=1 2 3 -1 6 -5 26 -7 10 -4 29 12 14 -13 15 19 17 -16 -17 21 24 22 -6 -24 -21 -26 -3 28 -18 -2
right_child=8 4 9 5 11 7 -8 -9 -10 -11 -12 13 -14 -15 16 18 27 -19 -20 20 -22 -23 23 -25 25 -27 -28 -29 -30 -31
leaf_value=-0.35729902295395732 -0.11279344618320467 -0.12660673858597876 -0.023131169825792317 -0.14304395407438278 0.3391022483073175 0.25527757596224548 -0.075704090222716347 -0.029480909407138822 -0.056938158012926593 0.24326857080683115 0.20867376089096071 -0.58684229567646984 0.19280416280031207 0.065068115890026104 0.059376968508586293 0.038784868866205219 -0.14301626455038785 -0.27526075169444086 0.53392190242186188 -0.18675747260451317 0.18282094785943626 -0.31030735889449718 -0.066293016765266652 0.1848832380771637 0.11739109572023154 -0.055935396552085882 -0.34467428565025332 0.2431414043903351 0.21860281629487874 0.26587724059820178
leaf_weight=65 36 37 23 22 41 66 407 29 26 213 118 38 48 40 33 24 27 87 31 27 47 22 67 70 41 178 62 25 21 29
leaf_count=65 36 37 23 22 41 66 407 29 26 213 118 38 48 40 33 24 27 87 31 27 47 22 67 70 41 178 62 25 21 29
internal_value=0 -0.00452261 0.0119617 -0.00989011 -0.00954115 0.0128205 -0.0221344 0.0284211 0.0253589 0.0288136 0.0322404 -0.00219146 0.000380228 -0.0282051 -0.00283401 0.00291971 -0.019171 -0.04 0.0527273 -0.00263692 -0.0119454 0.011 0.0179775 0.00510949 -0.0195122 -0.0141553 -0.0494949 0.0150685 -0.00416667 0.00769231
internal_weight=0 1791 418 182 1373 117 506 95 209 236 183 867 789 78 741 548 193 120 55 493 293 200 178 137 246 219 99 73 48 65
internal_count=2000 1791 418 182 1373 117 506 95 209 236 183 867 789 78 741 548 193 120 55 493 293 200 178 137 246 219 99 73 48 65
is_linear=0
shrinkage=0.1


Tree=6
num_leaves=31
num_cat=0
split_feature=7 0 7 8 6 3 2 6 3 7 4 5 3 4 8 4 1 3 5 3 7 1 0 1 6 0 2 0 8 7
split_gain=15.6347 16.115 13.6935 11.8076 11.1671 15.9755 12.1149 12.4633 10.5065 12.8076 13.7346 9.25714 8.97647 8.92647 12.7528 9.69577 8.23669 9.87056 8.1431 7.95018 7.82099 7.54805 6.99473 11.6692 10.9726 6.96066 6.87398 6.82832 6.40381 5.72555
threshold=44221262.905000009 4971.8750000000009 40524003.345000006 0.99995550000000011 2775239.0050000004 1.0016005000000001 1.0010455000000003 1971392.3500000003 1.0009500000000002 2521877.0850000004 1.0010715000000003 -1.0000000180025095e-35 1.0024735 0.99957200000000013 1.0002700000000002 1.0000415000000002 26811.790000000005 1.0017495000000003 -1.0000000180025095e-35 1.0009435000000002 1692703.0450000002 44488.710000000006 13829.580000000002 2712.0200000000004 464627.61000000004 14147.400000000001 1.0000270000000002 7599.7500000000009 1.0005535000000003 3587127.7850000006
decision_type=2 2 2 2 2 2 2 2 2 2 2 2 2 2 2 2 2 2 2 2 2 2 2 2 2 2 2 2 2 2
left_child=1 13 3 21 5 6 7 8 22 10 20 -11 -7 -1 18 -16 17 -6 -15 -2 -10 27 28 -24 26 -18 -25 -3 -5 -27
right_child=19 2 -4 4 16 12 -8 -9 9 11 -12 -13 -14 14 15 -17 25 -19 -20 -21 -22 -23 23 24 -26 29 -28 -29 -30 -31
leaf_value=0.42959362496528775 0.19000005239248274 0.2131090722177178 -0.37253336364030842 -0.10595520448684695 -0.021085153719875967 -0.50703001065552233 0.24741260647121815 -0.19652182780951263 -0.25798503711819648 -0.56387311462685463 0.18531408058106902 -0.084840927231591201 0.043660656701773416 -0.16375148318707944 0.33924004676844927 0.082934801230207078 -0.074834941537119448 0.43972100136429071 0.057378630289807921 -0.08993966057524086 0.15719665161520244 0.026001380154862998 -0.21449913973361251 0.34817317078076304 0.19027527420595289 -0.12107206982374193 -0.082152578078210359 -0.1896263548936695 0.15925440265983346 0.241601693212986
leaf_weight=65 100 30 24 75 165 88 43 70 23 35 25 45 41 73 27 212 23 24 60 28 22 68 32 31 107 22 66 230 30 116
leaf_count=65 100 30 24 75 165 88 43 70 23 35 25 45 41 73 27 212 23 24 60 28 22 68 32 31 107 22 66 230 30 116
internal_value=0 -0.00331197 -0.00843206 -0.00715804 -0.00212373 -0.00914052 -0.00231788 -0.00623886 -0.000610998 -0.0226667 0.00857143 -0.05 -0.0410853 0.0135011 0.00752688 0.0213389 0.0125714 -0.0015873 -0.0172932 0.0328125 -0.0244444 -0.0237805 0.00909091 0.0186441 0.027451 0.0291925 0.00309278 -0.0315385 -0.012381 0.0376812
internal_weight=0 1872 1435 1411 1083 733 604 561 491 150 70 80 129 437 372 239 350 189 133 128 45 328 341 236 204 161 97 260 105 138
internal_count=2000 1872 1435 1411 1083 733 604 561 491 150 70 80 129 437 372 239 350 189 133 128 45 328 341 236 204 161 97 260 105 138
is_linear=0
shrinkage=0.1


Tree=7
num_leaves=31
num_cat=0
split_feature=7 7 1 0 1 3 5 1 0 2 7 0 3 0 1 0 1 0 6 7 6 3 2 3 0 8 6 7 7 8
split_gain=14.4 12.457 12.1057 13.2744 9.53335 7.64595 8.62088 7.58233 7.48062 12.2895 11.6887 8.62844 7.43143 7.3594 7.28078 11.0665 6.94714 6.36695 5.89597 6.76138 7.01908 5.24506 7.41609 7.32369 10.5846 8.33598 12.0851 9.31663 7.3785 6.78571
threshold=44221262.905000009 41092540.100000009 721.64000000000021 3532.1850000000004 11958.495000000001 1.0001035000000003 1.0000000180025095e-35 1357.5500000000004 248.23500000000004 1.0009450000000002 4903041.9000000013 395.50500000000005 1.0009435000000002 33986.865000000013 21351.450000000004 722.00000000000011 11677.175000000001 38119.000000000007 6248285.870000001 14382160.160000002 8372976.4900000012 1.0017570000000002 1.0010455000000003 1.0011555000000003 20443.845000000005 1.0007090000000003 535938.32500000007 4562579.4750000006 780516.00000000012 1.0018935000000002
decision_type=2 2 2 2 2 2 2 2 2 2 2 2 2 2 2 2 2 2 2 2 2 2 2 2 2 2 2 2 2 2
left_child=1 2 -1 8 5 6 -5 -7 10 11 -4 -10 -2 -9 15 -13 -17 -15 21 20 -20 22 23 25 -25 27 -27 28 -6 -23
right_child=12 -3 3 4 18 7 -8 13 9 -11 -12 14 -14 17 -16 16 -18 -19 19 -21 -22 29 -24 24 -26 26 -28 -29 -30 -31
leaf_value=-0.23310701062351002 0.17100004715323447 -0.37841655374169347 0.29301510094315741 -0.11437559623811394 -0.13918642744179816 0.19297210264801978 -0.31864669613465668 -0.11211153528175784 0.44538013432663864 -0.23440822859164331 -0.17251504638101908 -0.30482800889364442 -0.080945694517716771 0.17600590113140646 0.28987390856645073 0.22711117560015995 -0.036481811845302595 -0.010241606628592116 0.60427663128897557 -0.028125967624201442 0.1477379553919658 -0.6359535921528936 0.092910804372350692 0.22833180750850587 -0.23311858568079771 -0.075806877525732855 0.25555655863061549 -0.060404477204661827 0.054396715062763536 0.014589204164594416
leaf_weight=127 100 24 31 47 22 36 38 251 31 31 22 27 28 20 95 71 29 63 27 59 76 32 65 22 57 25 58 233 215 38
leaf_count=127 100 24 31 47 22 36 38 251 31 31 22 27 28 20 95 71 29 63 27 59 76 32 65 22 57 25 58 233 215 38
internal_value=0 -0.0034188 -0.00248918 -0.000290529 -0.00462428 -0.0164835 -0.0435294 -0.0102703 0.0175074 0.0239437 -0.0169811 0.0312253 0.03125 -0.0149701 0.0243243 0.00866142 0.024 0.0108434 0.00118407 0.0185185 0.0339806 -0.00247718 0.000143472 -0.00316456 -0.0316456 0.000904159 0.0301205 -0.00425532 0.00970464 -0.0285714
internal_weight=0 1872 1848 1721 1384 455 85 370 337 284 53 253 128 334 222 127 100 83 929 162 103 767 697 632 79 553 83 470 237 70
internal_count=2000 1872 1848 1721 1384 455 85 370 337 284 53 253 128 334 222 127 100 83 929 162 103 767 697 632 79 553 83 470 237 70
is_linear=0
shrinkage=0.1


Tree=8
num_leaves=31
num_cat=0
split_feature=1 0 7 7 3 7 6 3 3 1 7 1 1 8 3 5 0 6 1 6 6 6 5 1 2 7 7 6 6 7
split_gain=13.7986 13.9537 9.6097 14.8663 8.64504 8.48748 13.8154 7.86866 7.2803 7.02458 9.98513 8.87353 10.4227 7.96611 9.00111 9.81459 7.62644 6.67136 6.72938 6.94007 8.03089 6.57845 8.57172 11.4603 6.49688 6.41667 6.40459 10.4958 6.84299 7.57423
threshold=721.64000000000021 4971.8750000000009 44221262.905000009 37911679.350000001 1.0009435000000002 1692703.0450000002 144760.16500000001 1.0015440000000002 1.0001825000000002 26131.995000000003 1811408.8050000004 19713.500000000004 14726.840000000002 1.0015480000000003 1.0003035000000002 1.0000000180025095e-35 28794.665000000005 8191296.0550000006 31788.315000000006 3527911.5050000004 3099760.9350000005 3724970.2600000002 -1.0000000180025095e-35 36673.645000000011 1.0005460000000002 62692952.68500001 4562579.4750000006 166263.55500000002 2448667.8950000005 5423211.6400000006
decision_type=2 2 2 2 2 2 2 2 2 2 2 2 2 2 2 2 2 2 2 2 2 2 2 2 2 2 2 2 2 2
left_child=-1 21 3 5 8 6 7 -3 -4 10 -7 12 13 14 15 16 -12 18 -11 20 26 22 23 -2 -13 -10 27 -20 29 -28
right_child=1 2 4 -5 -6 9 -8 -9 25 17 11 24 -14 -15 -16 -17 -18 -19 19 -21 -22 -23 -24 -25 -26 -27 28 -29 -30 -31
leaf_value=-0.20979630956115899 -0.10800157773111947 0.33956142673743189 -0.006100968069434165 -0.25145889416873457 -0.10952652228694411 0.49154826726146039 -0.20275183454256507 -0.20144663488363151 0.2813530156211555 0.10290303666456602 0.15675470239639985 -0.19915364061360483 0.10694208300070369 -0.57917673334769215 0.017679642710776544 -0.16118455614678562 -0.17178093797612937 0.23135154226528482 -0.10302420391199063 -0.20886241170715542 0.30872641129873696 0.20155755889002236 0.16607648272836584 0.43894867640499496 0.0010992852757545303 0.12753379954300822 -0.27550097270463597 0.1713540672645357 -0.22393029469088652 0.023813700759736836
leaf_weight=129 113 36 24 28 25 28 127 23 22 74 42 68 95 37 257 68 23 74 21 56 32 104 176 20 35 42 24 65 20 112
leaf_count=129 113 36 24 28 25 28 127 23 22 74 42 68 95 37 257 68 23 74 21 56 32 104 176 20 35 42 24 65 20 112
internal_value=0 0.000481026 -0.00411523 -0.0064684 0.0238938 -0.00493546 -0.0247312 0.0152542 0.0386364 -0.00167993 -0.00842266 -0.01104 -0.00574713 -0.0124122 -0.00820513 -0.0293233 -0.00153846 0.00753138 0.00247525 -0.00363636 0.00291971 0.016707 0.00938511 -0.00977444 -0.0378641 0.05625 -0.00330579 0.0186047 -0.0153846 -0.00735294
internal_weight=0 1871 1458 1345 113 1317 186 59 88 1131 653 625 522 427 390 133 65 478 404 330 274 413 309 133 103 64 242 86 156 136
internal_count=2000 1871 1458 1345 113 1317 186 59 88 1131 653 625 522 427 390 133 65 478 404 330 274 413 309 133 103 64 242 86 156 136
is_linear=0
shrinkage=0.1


Tree=9
num_leaves=31
num_cat=0
split_feature=0 8 7 0 6 7 7 7 2 2 8 5 7 7 4 6 0 6 7 7 4 8 3 0 7 4 7 6 7 8
split_gain=13.3988 10.0578 10.1626 8.91829 8.58434 13.0594 13.2008 9.72779 9.62949 10.8868 14.0227 10.8278 9.34533 9.80168 9.06857 7.72947 7.22084 10.762 10.2278 8.83291 8.63334 15.3696 6.99497 6.68431 10.8624 9.16592 10.2902 10.233 7.97396 8.43455
threshold=4971.8750000000009 0.99988300000000019 7468312.0150000006 7599.7500000000009 8191296.0550000006 4562579.4750000006 3645630.1400000006 3886319.3100000005 1.0003080000000002 1.0007765000000004 1.0015845000000001 1.0000000180025095e-35 5423211.6400000006 6791817.5500000007 1.0005655000000002 201827.15000000002 248.23500000000004 589706.32000000018 4903041.9000000013 688144.08000000019 0.9999340000000001 1.0003985000000002 1.0000900000000004 49356.375000000007 15344219.260000002 1.0009010000000003 21078663.075000007 7643705.8000000007 27378401.705000002 1.0011115000000002
decision_type=2 2 2 2 2 2 2 2 2 2 2 2 2 2 2 2 2 2 2 2 2 2 2 2 2 2 2 2 2 2
left_child=16 3 4 -2 5 6 8 -8 -3 14 -11 -12 -7 -14 -10 -5 18 19 -1 -18 -21 -22 -4 24 -24 26 -26 -28 29 -25
right_child=1 2 22 15 -6 12 7 -9 9 10 11 -13 13 -15 -16 -17 17 -19 -20 20 21 -23 23 28 25 -27 27 -29 -30 -31
leaf_value=0.18881139492900717 0.26408143934308764 0.033780786626433294 -0.11286721798830529 0.0029488087732180202 0.38188157928083655 -0.46780006473551539 0.36591017213167298 0.0044403663942817473 0.19642217676851029 0.12178368315915651 -0.38774114161219986 -0.72728102303070474 -0.00020455023045954369 -0.7295860467297266 -0.24747668685486457 -0.16978659511478805 0.15734150759974636 0.1453005826335439 -0.17187119001575374 0.31259766410747458 -0.41994426188580775 0.041766647995348551 0.11248246340554649 -0.013592231118842264 -0.17869394511304248 -0.22891628963294366 0.25420925766310098 -0.054803606917321682 0.18780678910371265 0.16229557017109827
leaf_weight=35 31 178 29 69 24 53 44 73 21 86 38 21 85 34 100 207 20 241 22 43 43 47 145 65 43 23 31 46 73 30
leaf_count=35 31 178 29 69 24 53 44 73 21 86 38 21 85 34 100 207 20 241 22 43 43 47 145 65 43 23 31 46 73 30
internal_value=0 -0.00561653 -0.00161031 -0.0218241 -0.00885073 -0.0107776 -0.00338681 0.0264957 -0.0112613 -0.0233083 -0.00482759 -0.0423729 -0.0348837 -0.0193277 -0.0454545 -0.0275362 0.013969 0.0187817 -0.0192982 -0.00196078 -0.0112782 -0.0288889 0.00969072 0.0127193 0.00347222 -0.0160839 -0.005 0.0168831 0.0285714 0.00947368
internal_weight=0 1549 1242 307 757 733 561 117 444 266 145 59 172 119 121 276 451 394 57 153 133 90 485 456 288 143 120 77 168 95
internal_count=2000 1549 1242 307 757 733 561 117 444 266 145 59 172 119 121 276 451 394 57 153 133 90 485 456 288 143 120 77 168 95
is_linear=0
shrinkage=0.1


Tree=10
num_leaves=31
num_cat=0
split_feature=7 1 8 2 1 0 0 6 0 6 6 5 7 5 0 7 7 7 6 6 6 7 6 4 5 8 2 7 2 0
split_gain=10.1115 8.88932 13.247 12.2206 9.75643 9.0829 8.05212 8.32742 7.14723 9.47224 8.27586 9.22236 8.37743 5.82577 5.9727 5.48727 8.14194 5.43796 7.83002 7.44312 11.2502 11.1818 12.3226 9.41204 13.7705 7.77145 7.30946 6.54062 7.71118 7.42143
threshold=99761337.185000017 3847.1350000000007 1.0001005000000001 1.0001430000000002 1279.6400000000001 4971.8750000000009 5433.9300000000012 11433231.945000002 248.23500000000004 339904.76500000007 589706.32000000018 -1.0000000180025095e-35 24840450.310000002 1.0000000180025095e-35 21695.000000000004 2926744.0200000005 7376842.0150000015 1692703.0450000002 138626.83500000002 1971392.3500000003 1779076.7000000004 37911679.350000001 2733002.8300000005 1.0013080000000001 1.0000000180025095e-35 1.0002205000000004 1.0010455000000003 9323366.2700000014 0.99951950000000012 26670.410000000003
decision_type=2 2 2 2 2 2 2 2 2 2 2 2 2 2 2 2 2 2 2 2 2 2 2 2 2 2 2 2 2 2
left_child=1 2 -1 4 -4 8 -7 17 9 -3 11 -10 15 14 -9 -12 -17 18 -8 20 23 22 -21 26 -25 -24 27 28 29 -19
right_child=-2 5 3 -5 -6 6 7 13 10 -11 12 -13 -14 -15 -16 16 -18 19 -20 21 -22 -23 25 24 -26 -27 -28 -29 -30 -31
leaf_value=-0.22172580438726819 0.1314710845002994 0.2491857418970608 0.30503867672938656 -0.08288339036158926 -0.019696019485083385 -0.13775653862449433 0.146238070936097 0.19306682246567908 -0.229104054632981 -0.13759703624111777 0.39515961695088875 0.18471431368528388 -0.029618852438468179 0.17288247706244061 -0.10233248220221985 0.0053481485964461117 0.25159657735790342 0.32842711956725251 -0.17088365572781392 -0.17347458454659548 0.16135988368341711 -0.20412493625442041 -0.099486098486714192 0.020940035257071977 -0.54511758387273523 0.079448278482836837 0.19405444914451661 0.11474635451007807 -0.022884830347449238 -0.038189854036277372
leaf_weight=137 59 20 37 174 36 22 42 20 46 26 21 70 23 61 29 47 83 27 113 81 23 22 96 40 21 210 25 73 296 20
leaf_count=137 59 20 37 174 36 22 42 20 46 26 21 70 23 61 29 47 83 27 113 81 23 22 96 40 21 210 25 73 296 20
internal_value=0 -0.00303967 -0.0166667 -0.00283401 0.0315068 0.00032113 -0.0036855 -0.00258549 0.014881 -0.0217391 0.0206897 0 0.0344828 0.0236364 -0.00204082 0.0430464 0.0353846 -0.00523416 -0.0225806 -0.00235546 0.00552381 -0.0124694 -0.00852713 0.00239044 -0.0344262 0.000653595 0.00748299 0.00432692 -0.00145773 0.0361702
internal_weight=0 1941 384 247 73 1557 1221 1199 336 46 290 116 174 110 49 151 130 1089 155 934 525 409 387 502 61 306 441 416 343 47
internal_count=2000 1941 384 247 73 1557 1221 1199 336 46 290 116 174 110 49 151 130 1089 155 934 525 409 387 502 61 306 441 416 343 47
is_linear=0
shrinkage=0.1


Tree=11
num_leaves=31
num_cat=0
split_feature=6 6 7 0 8 8 8 4 1 4 7 7 8 6 2 8 6 8 4 0 5 0 3 2 2 2 0 0 4 7
split_gain=9.86049 16.0104 9.70617 13.5234 8.6462 13.0021 11.4197 10.9689 9.54613 8.20929 9.81252 14.867 7.50124 7.19778 8.306 6.90467 6.45005 6.78669 6.32739 6.00096 5.77361 5.56006 7.79623 6.73742 5.54087 4.95353 8.40737 6.22222 7.48831 5.54614
threshold=6248285.870000001 6767854.2250000006 15344219.260000002 61219.665000000001 1.0015705000000001 1.0018935000000002 1.0005040000000001 1.0005705000000003 69422.35000000002 1.0004785 2059937.1100000001 4793612.1050000014 1.0014625000000004 25548672.385000002 1.0002455000000003 1.0025245000000003 144760.16500000001 1.0004310000000001 1.0004615000000003 78708.450000000012 1.0000000180025095e-35 2782.2150000000006 1.0002130000000002 1.0000295000000003 1.0003080000000002 1.0006600000000001 20888.940000000002 13112.085000000001 1.0006825000000001 4221246.5950000016
decision_type=2 2 2 2 2 2 2 2 2 2 2 2 2 2 2 2 2 2 2 2 2 2 2 2 2 2 2 2 2 2
left_child=4 -2 21 13 6 -6 8 18 9 16 -11 -12 19 14 -4 20 -1 -18 -8 24 -7 -3 -23 -24 -9 26 27 28 -26 -27
right_child=1 2 3 -5 5 15 7 12 -10 10 11 -13 -14 -15 -16 -17 17 -19 -20 -21 -22 22 23 -25 25 29 -28 -29 -30 -31
leaf_value=0.060900904456740616 0.63442930896823702 0.23123644475051164 -0.055650200773385262 0.11921248809273788 -0.56554750173257873 0.46866995429504982 0.10815158947927335 0.32153724939877482 0.09055418644612874 -0.48104372347057556 0.064441787097852032 -0.51992809440768772 0.3326785964456101 0.056294763993476195 -0.22748139036283557 -1.0492164207275825 -0.052789426693436385 0.23300848126930382 0.23345867388618902 -0.098250406299282056 -0.081032603027443223 -0.070211653455697798 0.54400570970190265 0.095942846996013922 0.031718885556250909 0.09438433450146029 -0.20308363063521995 0.2006924798291716 -0.40148390366253861 -0.06859188788444133
leaf_weight=166 24 35 58 60 48 25 66 34 95 27 34 26 23 45 52 31 484 27 64 61 24 33 24 100 20 127 58 21 22 86
leaf_count=166 24 35 58 60 48 25 66 34 95 27 34 26 23 45 52 31 484 27 64 61 24 33 24 100 20 127 58 21 22 86
internal_value=0 0.012297 0.00761671 -0.00697674 -0.00478011 -0.0296875 -0.00256766 0.00824742 -0.00989523 -0.0136126 -0.0425287 -0.02 0.000884956 -0.0225806 -0.0363636 -0.005 -0.0098966 -0.0154599 0.0338462 -0.0020979 0.0183673 0.0239583 0.0159236 0.0274194 0.00271739 -0.0011976 -0.0173554 0.00793651 -0.0142857 0.00798122
internal_weight=0 431 407 215 1569 128 1441 582 859 764 87 60 452 155 110 80 677 511 130 429 49 192 157 124 368 334 121 63 42 213
internal_count=2000 431 407 215 1569 128 1441 582 859 764 87 60 452 155 110 80 677 511 130 429 49 192 157 124 368 334 121 63 42 213
is_linear=0
shrinkage=0.1


Tree=12
num_leaves=31
num_cat=0
split_feature=1 1 0 3 8 2 3 7 0 3 7 1 1 0 6 0 7 2 3 0 7 7 2 4 5 0 0 0 7 0
split_gain=11.8644 10.2912 7.86777 7.72248 7.35015 10.1291 7.09939 10.5638 7.74656 7.72504 6.81309 6.71233 6.62257 6.37954 6.2481 6.89627 5.59645 5.38342 5.2971 13.6857 10.1824 9.61373 9.00014 8.7635 7.98213 6.73795 6.3913 6.38229 7.83286 6.27004
threshold=721.64000000000021 998.23000000000013 4971.8750000000009 1.0000680000000004 1.0004240000000002 1.0002100000000003 1.0001035000000003 2667754.0500000003 8043.1600000000008 1.0002715000000002 2960077.3700000006 73527.480000000025 432.45000000000005 31902.815000000006 608832.92500000016 689.69000000000017 131980337.38000001 0.9998935000000001 1.0009435000000002 128536.70500000002 24509977.380000003 11052648.780000001 1.0010455000000003 1.0000415000000002 -1.0000000180025095e-35 117933.75000000001 33576.465000000004 15423.500000000002 5680675.8600000013 51845.500000000007
decision_type=2 2 2 2 2 2 2 2 2 2 2 2 2 2 2 2 2 2 2 2 2 2 2 2 2 2 2 2 2 2
left_child=12 -2 3 -3 14 -6 8 9 -4 -8 13 -10 -1 -9 17 -16 18 -5 23 20 21 22 29 26 -24 -25 27 28 -12 -20
right_child=1 2 6 4 5 -7 7 10 11 -11 16 -13 -14 -15 15 -17 -18 -19 19 -21 -22 -23 24 25 -26 -27 -28 -29 -30 -31
leaf_value=-0.061932135056743699 0.16976265016592718 0.20439450173382215 0.24819897427010251 0.019144154509075157 0.33936466908216284 0.028347597620130272 0.19723090535986063 0.17003552982422337 -0.10639664898655365 -0.08505130096049679 -0.16780733937763373 0.11296856266277192 -0.28397406272836917 0.30714916819190607 -0.056921224529682485 0.13479674490408267 0.1619920093463815 -0.35431610174627604 -0.13535898804040533 -0.48329797206612179 -0.17543718199595065 0.22433892335891131 -0.077093902553981061 0.023044752189327132 0.084348727803143397 0.25007025203225547 -0.15745707727662284 0.17058750698824357 0.17162809390869949 0.039787355953282644
leaf_weight=80 38 75 20 23 36 147 21 21 191 302 21 20 49 22 23 59 27 41 87 23 29 26 46 358 62 45 23 25 23 37
leaf_count=80 38 75 20 23 36 147 21 21 191 302 21 20 49 22 23 59 27 41 87 23 29 26 46 358 62 45 23 25 23 37
internal_value=0 0.00112239 5.45554e-05 0.0123762 0.00577508 0.0191257 -0.00342897 -0.00033389 -0.0194805 -0.0157895 0.00537143 -0.0251185 -0.0302326 0.044186 -0.0109589 0.00731707 0.00336538 -0.034375 0.00186335 -0.0083871 -0.00243902 0.00387597 -0.00258621 0.00828283 0.0185185 0.0146402 -0.0195652 -0.00434783 -0.0272727 -0.0209677
internal_weight=0 1871 1833 404 329 183 1429 1198 231 323 875 211 129 43 146 82 832 64 805 310 287 258 232 495 108 403 92 69 44 124
internal_count=2000 1871 1833 404 329 183 1429 1198 231 323 875 211 129 43 146 82 832 64 805 310 287 258 232 495 108 403 92 69 44 124
is_linear=0
shrinkage=0.1


Tree=13
num_leaves=31
num_cat=0
split_feature=1 0 8 7 3 6 8 6 3 0 0 8 7 8 6 6 0 6 7 0 1 0 8 0 2 1 5 3 7 2
split_gain=8.26453 7.94666 7.98549 7.74177 7.61919 7.22715 6.60029 6.78133 6.26253 12.6776 11.0093 7.65844 9.3339 7.2748 10.9553 12.2172 10.0075 6.06537 5.96698 5.71984 6.47383 5.4552 5.44051 5.41623 7.49193 8.36551 6.51073 5.39544 5.38729 5.66449
threshold=721.64000000000021 4971.8750000000009 0.99988300000000019 3116567.9150000005 0.99986450000000004 3175106.5400000005 0.99954500000000013 185042.63500000004 1.0009435000000002 128536.70500000002 117933.75000000001 1.0006525000000002 3886319.3100000005 1.0010910000000002 851968.04000000015 2531478.0400000005 36227.700000000004 1510408.1500000001 7181797.8150000004 51202.960000000006 4859.8550000000005 16011.525000000001 1.0006445000000002 248.23500000000004 1.0010290000000002 21550.580000000005 -1.0000000180025095e-35 1.0008100000000002 4238749.5150000006 1.0006635000000002
decision_type=2 2 2 2 2 2 2 2 2 2 2 2 2 2 2 2 2 2 2 2 2 2 2 2 2 2 2 2 2 2
left_child=-1 4 6 5 -2 17 19 -8 10 13 11 12 -5 28 -15 -16 18 -4 -17 20 -3 -20 -19 -6 25 26 -25 -27 -10 -30
right_child=1 2 3 8 23 -7 7 -9 9 -11 -12 -13 -14 14 15 16 -18 22 21 -21 -22 -23 -24 24 -26 27 -28 -29 29 -31
leaf_value=-0.13014332061987022 0.48366518335574799 -0.42908859792421716 -0.032516932288731919 0.34473812125036035 -0.040816501590893478 -0.29786125971178462 0.021505193118704708 -0.16469769234353099 0.024946395214019614 -0.42200736807034434 0.21309618956460055 0.16606545738373787 -0.0089172528203768763 -0.14133585929344772 0.30084354675294556 -0.20405170357422736 0.10558908397117764 -0.0043390077337794345 0.25209198169131641 -0.13998340765528527 0.11168474219590477 -0.077503723243449257 0.22243244320621153 -0.049389137188539274 -0.24854910974665151 0.068276177412810654 0.066305096803210395 0.29572900163893501 -0.23522467270392175 -0.032383505340516164
leaf_weight=129 51 23 283 39 43 20 37 99 23 24 54 71 350 33 23 25 54 26 24 38 88 22 24 78 35 70 87 49 27 51
leaf_count=129 51 23 283 39 43 20 37 99 23 24 54 71 350 33 23 25 54 26 24 38 88 22 24 78 35 70 87 49 27 51
internal_value=0 0.000587921 -0.00288066 0.000767263 0.0128329 -0.0116147 -0.0178947 -0.0338235 0.00609756 -0.00522876 0.0128405 0.00782609 0.00231362 0.00070922 0.0127072 0.0243243 0.012 -0.00810811 -0.0126761 -0.0033557 0.00810811 0.00869565 0.024 0.00773481 0.0122257 0.0176056 0.0030303 0.0378151 -0.0207921 -0.0333333
internal_weight=0 1871 1458 1173 413 353 285 136 820 306 514 460 389 282 181 148 125 333 71 149 111 46 50 362 319 284 165 119 101 78
internal_count=2000 1871 1458 1173 413 353 285 136 820 306 514 460 389 282 181 148 125 333 71 149 111 46 50 362 319 284 165 119 101 78
is_linear=0
shrinkage=0.1


Tree=14
num_leaves=31
num_cat=0
split_feature=7 7 8 6 7 5 1 7 0 6 6 7 7 7 2 4 3 3 4 7 1 1 3 0 1 1 5 7 1 7
split_gain=7.51717 8.42214 10.8452 14.319 8.81315 7.9723 7.52906 12.5853 8.04494 7.63786 6.59082 6.0222 7.83406 7.2929 5.7671 5.69451 9.71241 5.63353 5.33326 7.70763 5.08154 8.866 8.31937 10.7922 5.81626 7.33679 6.50682 7.57207 6.03449 6.0424
threshold=123468.74500000001 1692703.0450000002 1.0014625000000004 144760.16500000001 1714729.6350000002 1.0000000180025095e-35 27975.870000000003 99761337.185000017 5129.6900000000014 29430.365000000002 709495.53000000014 2413341.3600000008 4148202.6650000005 5423211.6400000006 0.99999450000000012 0.99949500000000013 1.0001035000000003 1.0008915 1.0000815000000001 1010798.285 19469.560000000001 21006.580000000005 1.0008775000000003 22774.400000000005 13535.250000000002 10066.275000000003 1.0000000180025095e-35 5090894.7500000009 8716.6100000000024 4071235.1750000003
decision_type=2 2 2 2 2 2 2 2 2 2 2 2 2 2 2 2 2 2 2 2 2 2 2 2 2 2 2 2 2 2
left_child=-1 2 3 17 -3 18 7 15 9 -8 -11 -10 -13 -14 -12 -6 -17 -2 -5 -20 24 -22 -23 -24 25 28 -26 -28 -18 -30
right_child=1 4 -4 5 6 -7 8 -9 11 10 14 12 13 -15 -16 16 20 -19 19 -21 21 22 23 -25 26 -27 27 -29 29 -31
leaf_value=0.54380877305955677 0.39785771029543199 0.443963379066245 -2.2757562192238829 0.010116424789753616 0.088578057130140442 -1.1740310649716552 -0.14846413356737362 0.14682380254193358 -0.14232050708215493 0.18859949436101875 0.32750780451768607 0.20018919888559036 -0.172474455414033 0.023162919377513337 0.023111453341349897 -0.11424501183484773 -0.0061503341929949554 0.081875952060171245 -0.35196279831081906 -0.0073121358692164852 -0.22465994771841299 -0.10334073667602738 0.34255818914459202 -0.14978667877364013 -0.033245982679946898 -0.07328051191059258 -0.01203106767999116 0.21928518037682557 0.89535899731828616 -0.0048355367412093453
leaf_weight=20 27 22 20 67 49 31 21 21 42 22 35 106 38 346 47 135 410 30 20 34 28 81 35 26 58 109 24 50 25 21
leaf_count=20 27 22 20 67 49 31 21 21 42 22 35 106 38 346 47 135 410 30 20 34 28 81 35 26 58 109 24 50 25 21
internal_value=0 -0.00161616 -0.0196507 -0.0129187 0.000742433 -0.0289474 -5.78369e-05 -0.00522388 0.00837139 0.0312 0.0423077 0.00300752 0.00612245 -0.000520833 0.0292683 -0.00675547 -0.00838323 0.0298246 -0.0173554 -0.0407407 -0.00449827 -0.02 -0.00985915 0.0180328 -0.00071736 -0.00513274 0.0181818 0.0378378 0.000438596 0.0347826
internal_weight=0 1980 229 209 1751 152 1729 1072 657 125 104 532 490 384 82 1051 1002 57 121 54 867 170 142 61 697 565 132 74 456 46
internal_count=2000 1980 229 209 1751 152 1729 1072 657 125 104 532 490 384 82 1051 1002 57 121 54 867 170 142 61 697 565 132 74 456 46
is_linear=0
shrinkage=0.1


Tree=15
num_leaves=31
num_cat=0
split_feature=4 6 6 7 0 2 8 8 8 7 0 0 7 7 7 7 7 6 6 6 2 6 6 8 4 1 1 7 6 0
split_gain=8.82551 8.55653 10.7207 8.00628 11.3793 8.90236 7.87871 11.0521 8.26875 6.86939 5.77436 6.39801 5.51844 7.07288 14.1997 8.7066 8.14315 10.2009 7.91919 10.2424 7.75088 7.23181 7.60618 5.60517 17.6786 7.41369 6.68807 5.86667 5.54575 8.26667
threshold=0.9985750000000001 6248285.870000001 6767854.2250000006 15344219.260000002 61219.665000000001 1.0002455000000003 1.0015705000000001 1.0014350000000003 1.0018935000000002 44364898.165000014 248.23500000000004 491.20000000000005 56244383.400000013 4562579.4750000006 2521877.0850000004 2088003.3350000002 5779227.7750000013 1228969.3850000002 624696.3600000001 201827.15000000002 0.99995200000000006 696821.78000000014 1991568.5150000001 1.0004075000000003 1.0004485000000003 9110.2350000000024 12765.430000000002 1652510.0000000002 1440693.3500000003 23284.380000000001
decision_type=2 2 2 2 2 2 2 2 2 2 2 2 2 2 2 2 2 2 2 2 2 2 2 2 2 2 2 2 2 2
left_child=-1 6 -3 -4 5 9 7 10 -8 -5 -2 -12 13 14 15 23 20 18 19 -18 -15 -17 -23 24 25 27 -25 -13 -16 -30
right_child=1 2 3 4 -6 -7 8 -9 -10 -11 11 12 -14 16 28 21 17 -19 -20 -21 -22 22 -24 26 -26 -27 -28 -29 29 -31
leaf_value=0.92607302631322297 -0.16975640147478541 0.5621361420483787 0.083391518070684928 -0.089328879826901658 0.094007011207653812 -0.11624548486731796 -0.46703813881848222 0.19887301326908938 -0.068454791389906844 0.14828706075140149 0.23482510078578145 -0.42612640669602708 0.12917732838607501 -0.053349413575784821 0.20275375385012109 -0.57038585217058102 0.058939981848457994 -0.066503368507062496 0.16613226283466898 -0.18877072258967728 -0.34043164939097886 0.035229439961670987 -0.27495380512964279 0.21932111072707389 -0.38539503418951093 0.057469896281558602 -0.03631131817896377 0.050488023246259277 -0.081864690981891156 0.1371357254691993
leaf_weight=40 44 24 188 52 60 82 48 39 80 21 33 33 29 54 187 33 88 226 66 44 60 43 26 67 29 103 55 22 64 60
leaf_count=40 44 24 188 52 60 82 48 39 80 21 33 33 29 54 187 33 88 226 66 44 60 43 26 67 29 103 55 22 64 60
internal_value=0 -0.00244898 0.0100703 0.00620347 -0.00697674 -0.0212903 -0.00593607 -0.00377224 -0.0296875 0.00410959 -0.00527086 -0.00408472 -0.00519783 -0.00619048 0.000277008 -0.0119221 -0.0148699 -0.00849057 0.00808081 -0.00606061 -0.0385965 -0.0372549 -0.0188406 -0.00355987 -0.0144385 -0.00126582 0.0131148 -0.0309091 0.0163987 0
internal_weight=0 1960 427 403 215 155 1533 1405 128 73 1366 1322 1289 1260 722 411 538 424 198 132 114 102 69 309 187 158 122 55 311 124
internal_count=2000 1960 427 403 215 155 1533 1405 128 73 1366 1322 1289 1260 722 411 538 424 198 132 114 102 69 309 187 158 122 55 311 124
is_linear=0
shrinkage=0.1


Tree=16
num_leaves=31
num_cat=0
split_feature=6 6 6 7 8 8 8 7 7 0 4 7 1 4 2 6 8 8 1 2 3 0 6 3 6 4 1 8 3 0
split_gain=8.09807 10.826 8.53854 9.9726 7.43044 7.00833 6.88552 5.94645 5.43925 5.37248 5.24265 4.95766 4.78917 4.71176 4.31002 4.2842 6.87516 7.51111 4.6339 9.24448 8.20988 10.0769 5.8093 14.8866 8.75156 6.66588 5.2663 4.65867 6.03077 4.45712
threshold=6248285.870000001 7775131.415000001 11433231.945000002 15344219.260000002 1.0015705000000001 1.0018935000000002 1.0014350000000003 123468.74500000001 56244383.400000013 20021.040000000005 1.0024845000000002 10603435.980000002 34431.775000000001 1.0013370000000001 1.0014180000000004 4126874.8650000007 1.0009585000000001 1.0002275 26591.985000000004 1.0010855000000001 1.0011555000000003 4272.1200000000008 739335.91000000003 1.0006105000000003 257376.11500000002 1.0004255000000002 79744.360000000015 1.0004470000000001 1.0000680000000004 31902.815000000006
decision_type=2 2 2 2 2 2 2 2 2 2 2 2 2 2 2 2 2 2 2 2 2 2 2 2 2 2 2 2 2 2
left_child=4 -2 3 11 6 14 7 -1 15 10 -7 12 -3 -4 -6 18 17 -17 19 -9 21 27 24 29 25 -23 -22 28 -20 -24
right_child=1 2 13 -5 5 9 -8 8 -10 -11 -12 -13 -14 -15 -16 16 -18 -19 20 -21 26 22 23 -25 -26 -27 -28 -29 -30 -31
leaf_value=0.4674957846808937 0.16615742070786066 -0.074195118520986411 0.083183882043727578 -0.13522344818231039 -0.95258242009809591 0.051935750744551104 0.17898571194218044 -0.035436606753562576 0.11625959554746751 0.13661124123501348 -1.2621365440477157 0.15331914571425936 0.10747303064149941 -0.048415027985509014 -0.22295649243016147 -0.17665363245331311 -0.48133637286854747 0.24471629904435047 0.94758898991714546 0.087923970261857026 -0.14634876444785191 0.040037121771626327 -0.13328543401629675 0.12176061428443033 0.27680020592980803 -0.094460638717673309 0.043884033651780743 0.25669886344756571 0.002214911851095991 -0.011909619289341679
leaf_weight=20 68 27 181 67 22 29 39 765 29 31 20 35 25 28 26 40 23 32 20 32 58 78 48 47 51 35 31 22 32 39
leaf_count=20 68 27 181 67 22 29 39 765 29 31 20 35 25 28 26 40 23 32 20 32 58 78 48 47 51 35 31 22 32 39
internal_value=0 0.0104408 0.00358127 -0.0142857 -0.00503505 -0.028125 -0.00298404 -0.00413695 -0.00492041 -0.01 -0.0306122 0.00804598 -0.0115385 0.0167464 -0.0583333 -0.00583888 -0.0263158 -0.0111111 -0.00429253 -0.00890841 0.00368764 0.0102151 0.00201342 -0.0134328 0.0146341 -0.000884956 -0.0235955 0.0432432 0.0269231 -0.037931
internal_weight=0 431 363 154 1569 128 1441 1402 1382 80 49 87 52 209 48 1353 95 72 1258 797 461 372 298 134 164 113 89 74 52 87
internal_count=2000 431 363 154 1569 128 1441 1402 1382 80 49 87 52 209 48 1353 95 72 1258 797 461 372 298 134 164 113 89 74 52 87
is_linear=0
shrinkage=0.1


Tree=17
num_leaves=31
num_cat=0
split_feature=4 6 8 6 3 8 2 2 2 0 1 7 2 7 8 5 2 4 4 6 7 2 8 5 7 8 7 8 6 4
split_gain=7.09751 5.62843 4.8425 7.00572 10.5182 12.0178 4.75846 3.97057 8.49296 6.79822 8.53795 7.19807 3.71947 9.04987 7.99747 8.31028 7.21559 7.87741 12.8565 6.5796 13.5294 9.82292 7.99723 6.51763 7.2453 6.35062 9.33433 6.47048 5.71289 5.94531
threshold=0.9985750000000001 11433231.945000002 1.0015705000000001 3030902.1550000007 1.0024900000000001 1.0025695000000001 1.0012895000000002 0.99943950000000015 0.9994995000000001 29991.550000000003 6557.4950000000008 1084677.3150000002 0.99998750000000014 688144.08000000019 0.99995550000000011 -1.0000000180025095e-35 0.99993700000000019 0.9999340000000001 1.0001100000000001 446795.53000000009 10621906.915000001 1.0003375000000003 1.0003840000000002 -1.0000000180025095e-35 10621906.915000001 1.0012745000000003 4221246.5950000016 1.0011910000000002 10852760.720000001 1.0000815000000001
decision_type=2 2 2 2 2 2 2 2 2 2 2 2 2 2 2 2 2 2 2 2 2 2 2 2 2 2 2 2 2 2
left_child=-1 2 7 4 6 -6 -4 9 -9 10 -2 -11 14 -14 23 -16 17 -17 -19 20 22 -22 -15 -10 -25 27 -27 28 29 -21
right_child=1 -3 3 -5 5 -7 -8 8 12 11 -12 -13 13 19 15 16 -18 18 -20 25 21 -23 -24 24 -26 26 -28 -29 -30 -31
leaf_value=0.74344955508026533 -0.21879500567429414 0.05346436617262218 -0.767112100288322 0.081358552269954532 0.66687857988596821 -0.94829740400656637 -0.18338416263952165 0.1383121555764755 -0.14915638865091385 0.074155186634060774 0.087215306661099112 -0.24007176105666175 0.40029080983257614 -0.29474052441896287 0.23436678992191276 0.10931466393941491 0.13045067126019494 -0.1545542763028287 0.19005981891998458 -0.10775950507598878 0.11847643186308776 -0.0090898589913271498 -0.045951595003313542 0.11433871648774918 -0.07657137571710218 0.50901129277988455 -0.0020443086245379937 -0.17795595249920346 -0.072053262782054553 0.0058159719660054905
leaf_weight=40 63 207 21 32 20 25 41 32 107 20 77 51 23 56 55 35 32 55 36 21 23 28 150 58 22 28 36 42 24 540
leaf_count=40 63 207 21 32 20 25 41 32 107 20 77 51 23 56 55 35 32 55 36 21 23 28 150 58 22 28 36 42 24 540
internal_value=0 -0.00255102 -0.00439247 -0.0223022 -0.0345794 0.00222222 -0.0612903 -0.00285006 -0.000926586 -0.0156398 -0.00285714 -0.0408451 -0.00211524 -0.00545829 0.006 0.0192488 0.00759494 -0.0031746 -0.0186813 -0.00696203 -0.0206226 0.0254902 -0.0320388 -0.00909091 0.0125 -0.00188133 0.028125 -0.00494418 -0.00222222 -0.000178253
internal_weight=0 1960 1753 139 107 45 62 1614 1403 211 140 71 1371 971 400 213 158 126 91 948 257 51 206 187 80 691 64 627 585 561
internal_count=2000 1960 1753 139 107 45 62 1614 1403 211 140 71 1371 971 400 213 158 126 91 948 257 51 206 187 80 691 64 627 585 561
is_linear=0
shrinkage=0.1


Tree=18
num_leaves=31
num_cat=0
split_feature=7 8 6 7 4 2 2 3 7 5 4 6 6 3 6 7 4 0 4 1 0 0 2 7 0 0 7 7 0 0
split_gain=6.63084 11.5036 14.6959 6.58716 6.54126 8.63653 7.43117 10.2618 7.01626 5.86087 5.35333 5.07419 12.0324 12.8721 8.94783 7.54249 9.80501 5.48571 6.94444 5.34689 4.92461 4.97101 4.89368 4.72454 4.71846 8.37593 6.87302 19.6696 6.23336 6.22399
threshold=1692703.0450000002 1.0014625000000004 144760.16500000001 1714729.6350000002 0.99916150000000015 0.99943950000000015 0.99998750000000014 1.0006105000000003 131980337.38000001 1.0000000180025095e-35 1.0000815000000001 293265.45000000001 201827.15000000002 1.0004895000000003 77632.645000000004 2088003.3350000002 1.0009225000000004 20443.845000000005 1.0006995000000003 38803.370000000003 18954.135000000006 12723.585000000001 0.9994995000000001 5680675.8600000013 12955.750000000002 17660.040000000005 15344219.260000002 11084451.920000002 27011.065000000006 3709.1100000000001
decision_type=2 2 2 2 2 2 2 2 2 2 2 2 2 2 2 2 2 2 2 2 2 2 2 2 2 2 2 2 2 2
left_child=1 2 -1 -2 -5 20 7 22 10 -4 -8 12 13 -12 17 16 -13 19 -19 -15 21 -6 -7 -22 26 -26 27 29 -27 -17
right_child=3 -3 9 4 5 6 8 -9 -10 -11 11 15 -14 14 -16 24 -18 18 -20 -21 23 -23 -24 -25 25 28 -28 -29 -30 -31
leaf_value=0.210254076835411 0.41955736148810829 -1.8295073313810049 -0.035442514082519326 0.28209675003173545 -0.12356905647540631 0.17954688591034199 -0.09734502526078985 0.33296231821656702 0.10804601452156262 -1.0396520477834621 0.073485192564488419 -0.0054388876703269865 -0.65644827994241661 -0.083399322905581677 0.088507788811199917 0.012497763652832485 0.50847885325171571 -0.007042549747155586 -0.18924256975995946 0.081868840061370879 -0.028181331000591437 0.11321921766072421 0.0077114686701503709 -0.2134379646395313 0.14164817012167352 -0.093150943978844492 -0.058837191675475069 0.62404399831234303 0.015171450737529258 -0.18816613306071864
leaf_weight=77 22 20 121 59 48 24 30 46 29 31 30 22 38 59 21 92 24 24 36 21 28 21 337 38 66 102 65 20 352 97
leaf_count=77 22 20 121 59 48 24 30 46 29 31 30 22 38 59 21 92 24 24 36 21 28 21 337 38 66 102 65 20 352 97
internal_value=0 -0.0172691 -0.010917 0.000171331 -0.000520532 -0.00167665 0.000456026 0.0120393 -0.0037234 -0.0289474 -0.00500455 -0.00383536 -0.0170306 -0.00680628 -0.0180124 -0.000238095 0.0391304 -0.0271429 -0.05 -0.01 -0.0259259 -0.00724638 0.00637119 -0.0454545 -0.00251889 0.00307692 -0.0131387 -0.00430622 -0.00176211 -0.0142857
internal_weight=0 249 229 1751 1729 1670 1535 407 1128 152 1099 1069 229 191 161 840 46 140 60 80 135 69 361 66 794 520 274 209 454 189
internal_count=2000 249 229 1751 1729 1670 1535 407 1128 152 1099 1069 229 191 161 840 46 140 60 80 135 69 361 66 794 520 274 209 454 189
is_linear=0
shrinkage=0.1


Tree=19
num_leaves=31
num_cat=0
split_feature=3 3 6 1 3 7 6 8 0 2 8 2 4 7 3 3 4 8 2 6 7 3 6 3 8 0 3 6 1 7
split_gain=6.42008 11.2839 5.79884 5.75674 8.46405 11.0832 6.8337 6.86682 5.89456 6.04963 5.19905 5.785 6.22477 6.01667 5.44335 9.86399 9.04765 6.54978 8.59959 6.46448 6.60014 6.13619 6.12144 7.9464 6.04348 8.17693 6.50672 5.36613 5.3195 5.09558
threshold=1.0028650000000001 1.0024735 219517.09000000005 27308.630000000001 1.0011555000000003 3116567.9150000005 1353972.0400000003 1.0012475000000001 5666.5600000000004 1.0003765000000002 1.0016075000000002 1.0007765000000004 1.0012390000000002 2960077.3700000006 1.0006855000000001 1.0011095000000003 1.0001815000000003 0.99954500000000013 0.99938650000000007 144760.16500000001 1958609.8100000003 1.0004510000000002 772265.34500000009 1.0001550000000001 1.0007180000000002 20443.845000000005 1.0009600000000003 3904750.0950000002 1575.2900000000002 29359771.575000007
decision_type=2 2 2 2 2 2 2 2 2 2 2 2 2 2 2 2 2 2 2 2 2 2 2 2 2 2 2 2 2 2
left_child=1 3 -2 10 8 -6 -7 -8 -5 -10 11 14 -13 -14 16 24 17 27 -19 -18 -21 -22 23 -20 25 -16 -26 28 -1 -11
right_child=2 -3 -4 4 5 6 7 -9 9 29 -12 12 13 -15 15 -17 19 18 22 20 21 -23 -24 -25 26 -27 -28 -29 -30 -31
leaf_value=-0.25013834424815667 0.04336451334347196 0.56231883393064164 -1.0017230065662435 0.10221281450777936 -0.13022042764677386 -0.093471292410536491 -0.07103570234626691 0.14822896442577549 -0.00093221480394968255 0.18232905854078604 -0.13443501674582184 0.075010997815594768 0.2820971584680052 -0.095183962541692757 -0.071542022414769993 0.064523378324020178 0.1016670985303573 -0.15991795718577709 0.19540173790080448 -0.24183318683866553 -0.0054159460393900967 0.078194849038299027 -0.063714510809129668 -0.084112886455728342 0.034984392243760792 -0.40330767816079816 -0.058772019481138221 0.22546515861075012 0.012227474533935091 -0.00017966382242199375
leaf_weight=25 21 24 20 123 62 34 38 56 334 69 59 82 20 60 93 77 53 42 38 25 66 94 151 64 63 41 28 29 77 32
leaf_count=25 21 24 20 123 62 34 38 56 334 69 59 82 20 60 93 77 53 42 38 25 66 94 151 64 63 41 28 29 77 32
internal_value=0 -0.00148035 -0.0414634 -0.00232558 0.00454545 -0.0136842 0.003125 0.0170213 0.0107527 0.00528736 -0.00665543 -0.00514184 0.0123457 -0.0075 -0.00807453 -0.0192053 -0.00301205 -0.0117371 -0.02 0.012605 0.00378378 0.01125 -0.0130435 0.00588235 -0.0297778 -0.0432836 -0.00989011 0.00687023 -0.00392157 0.0267327
internal_weight=0 1959 41 1935 748 190 128 94 558 435 1187 1128 162 80 966 302 664 426 295 238 185 160 253 102 225 134 91 131 102 101
internal_count=2000 1959 41 1935 748 190 128 94 558 435 1187 1128 162 80 966 302 664 426 295 238 185 160 253 102 225 134 91 131 102 101
is_linear=0
shrinkage=0.1


Tree=20
num_leaves=31
num_cat=0
split_feature=1 1 6 7 7 7 1 7 7 8 6 7 2 5 1 1 3 1 8 7 7 2 1 6 7 7 2 3 7 6
split_gain=5.68739 6.07608 5.652 5.49387 11.9628 7.43259 4.83857 4.23878 9.11568 8.25003 8.77871 13.193 7.12779 4.60909 4.24181 4.21551 6.18262 10.6351 13.0467 8.56634 6.01612 7.26962 7.04341 8.36742 5.08654 5.05574 3.79878 13.9225 8.00092 7.70614
threshold=3932.0500000000006 4997.7250000000013 43721806.540000007 29359771.575000007 43435070.895000003 27995704.185000006 22070.530000000002 1692703.0450000002 1420249.6400000004 1.0010910000000002 204887.47500000003 967787.97000000009 0.99898750000000014 1.0000000180025095e-35 162989.80000000002 2158.0350000000003 1.0010480000000002 2855.8100000000004 1.0002135000000003 3071456.0500000003 12717219.49 0.99909400000000004 721.64000000000021 225656.53000000003 4793612.1050000014 2818425.1600000006 1.0010455000000003 1.0013295000000002 2509432.9550000005 1810160.2100000002
decision_type=2 2 2 2 2 2 2 2 2 2 2 2 2 2 2 2 2 2 2 2 2 2 2 2 2 2 2 2 2 2
left_child=15 -2 3 5 -5 7 -6 8 9 10 -3 -12 -9 -10 26 20 17 19 -19 -17 21 -1 24 -24 25 -23 -14 -28 -29 -30
right_child=1 2 -4 4 6 -7 -8 12 13 -11 11 -13 14 -15 -16 16 -18 18 -20 -21 -22 22 23 -25 -26 -27 27 28 29 -31
leaf_value=-0.49052425558912938 0.070895282302901028 0.12722200016562066 0.11755727363878687 -0.16354400339313863 -0.091336949362519529 0.23213745489256629 0.09372622239935452 0.35870212424549797 -0.08007778784818434 -0.71027567582585205 -0.54276173583355103 0.11780390997630195 -0.003553727420447822 -1.202973705111468 -0.1324075893612251 0.074203951051730013 -0.47203479035482321 -0.038764662465893981 0.24832532267602325 -0.2026085420725523 0.063579588170530513 -0.26084639711582663 0.21418964288846035 -0.0016433926587856808 -0.13566434615242384 0.1977673522501516 0.20829544951425305 0.3417548732113988 -0.19201905266782995 0.049554477481607004
leaf_weight=32 42 57 48 38 20 23 49 49 24 26 27 38 921 20 29 21 27 23 20 34 40 47 32 66 32 25 21 21 50 98
leaf_count=32 42 57 48 38 20 23 49 49 24 26 27 38 921 20 29 21 27 23 20 34 40 47 32 66 32 25 21 21 50 98
internal_value=0 0.000562149 -0.000449006 -0.00152217 -0.0233645 0.00014245 0.00144928 -0.000796524 -0.0145833 -0.0027027 0.00819672 -0.0169231 0.00142977 -0.0545455 -0.000175439 -0.012782 -0.028 -0.0163265 0.0209302 -0.0454545 -0.00583942 -0.0119658 -0.0049505 0.0142857 -0.0230769 -0.00833333 0.000810081 0.0136842 0.00414201 -0.00405405
internal_weight=0 1601 1559 1511 107 1404 69 1381 192 148 122 65 1189 44 1140 399 125 98 43 55 274 234 202 98 104 72 1111 190 169 148
internal_count=2000 1601 1559 1511 107 1404 69 1381 192 148 122 65 1189 44 1140 399 125 98 43 55 274 234 202 98 104 72 1111 190 169 148
is_linear=0
shrinkage=0.1


Tree=21
num_leaves=31
num_cat=0
split_feature=4 3 3 8 2 7 8 4 2 2 2 3 0 1 8 1 0 8 4 2 0 4 7 8 6 1 4 4 6 6
split_gain=6.728 5.17587 8.4633 5.54569 8.52423 6.90209 6.32343 4.7896 9.82738 5.67892 6.23706 5.41887 6.56574 5.00595 4.80392 4.77176 4.8 4.46429 7.15365 4.37391 6.60964 5.31335 4.50669 5.07974 4.50633 7.21423 7.97905 6.28172 5.72694 7.29424
threshold=0.9985750000000001 1.0028650000000001 1.0024735 1.0015705000000001 1.0014180000000004 109785898.81000002 1.0014940000000003 1.0005745000000001 1.0004565000000001 1.0003675000000001 1.0004195000000002 1.0007780000000002 248.23500000000004 3847.1350000000007 1.0005040000000001 18663.450000000004 22774.400000000005 1.0006445000000002 1.0007435000000002 1.0003375000000003 10512.215000000002 1.0003815000000003 15590327.340000002 1.0005040000000001 132653.47000000003 4084.4100000000003 1.0000965000000004 0.99999950000000004 280146.53500000003 219517.09000000005
decision_type=2 2 2 2 2 2 2 2 2 2 2 2 2 2 2 2 2 2 2 2 2 2 2 2 2 2 2 2 2 2
left_child=-1 2 3 5 -5 6 7 8 11 13 -11 12 -2 14 -9 -13 -17 18 -12 21 -21 24 23 -23 25 -14 27 -27 29 -26
right_child=1 -3 -4 4 -6 -7 -8 9 -10 10 17 15 19 -15 -16 16 -18 -19 -20 20 -22 22 -24 -25 28 26 -28 -29 -30 -31
leaf_value=0.62513571042135752 -0.15380070583428404 -0.42661007246574983 0.50113150278941665 -0.27611160361951409 -0.00655336957561532 0.06380575407261091 0.23317692604558571 -0.30666910337390335 0.19428208084704973 0.089448953392475661 -0.00071408662796103588 -0.082008857940939719 -0.20027312624684379 -0.23493938479684956 0.032773804802614319 0.24034626799113093 0.0065812319366548968 -0.0034284973438626801 -0.33274993321336499 -0.16416395656721061 0.0057958287191174967 0.013961646057546706 -0.0041922127758064701 0.17078749322409126 -0.018427791331515297 0.15899456367208661 0.11776454969445221 -0.087394513993722001 -0.0021766364477108558 -0.26024079009064943
leaf_weight=40 33 41 24 40 74 38 24 20 35 25 38 25 27 42 34 40 20 406 24 21 41 41 23 24 48 49 55 34 580 34
leaf_count=40 33 41 24 40 74 38 24 20 35 25 38 25 27 42 34 40 20 406 24 21 41 41 23 24 48 49 55 34 580 34
internal_value=0 -0.00142857 -0.000677436 -0.0014248 -0.022807 -5.61482e-05 -0.00097533 -0.00168703 0.00212389 -0.0089983 -0.00466531 0.000456621 -0.00158416 -0.03125 -0.0111111 0.0247059 0.04 -0.00726496 -0.0322581 -0.000102354 -0.0258065 0.00163934 0.025 0.0384615 -0.000846433 0.0139394 0.0231884 0.00361446 -0.00453172 -0.0292683
internal_weight=0 1960 1919 1895 114 1781 1743 1719 1130 589 493 1095 1010 96 54 85 60 468 62 977 62 915 88 65 827 165 138 83 662 82
internal_count=2000 1960 1919 1895 114 1781 1743 1719 1130 589 493 1095 1010 96 54 85 60 468 62 977 62 915 88 65 827 165 138 83 662 82
is_linear=0
shrinkage=0.1


Tree=22
num_leaves=31
num_cat=0
split_feature=6 3 3 1 3 0 1 3 2 8 7 1 6 0 2 7 4 7 6 8 1 7 3 3 6 6 2 4 1 1
split_gain=5.51291 4.94783 6.44025 4.42412 7.55597 9.94234 9.63073 9.53706 9.26879 8.27591 6.19766 6.20089 6.06061 5.61725 5.80251 6.60699 5.71285 8.15661 8.311 5.4855 4.518 5.35186 4.47236 7.08542 4.37576 4.35981 4.27987 5.26903 4.27316 12.9421
threshold=43721806.540000007 1.0028650000000001 1.0024735 27308.630000000001 1.0010035000000002 128536.70500000002 102036.01000000002 1.0008225000000002 1.0011305000000001 1.0011565000000002 1420249.6400000004 155203.19500000004 3030902.1550000007 121537.12000000001 0.99861700000000009 2521877.0850000004 0.99999050000000012 15087192.675000003 2837421.2350000008 0.99986150000000007 37649.680000000008 4148202.6650000005 1.0005905000000002 1.0003605000000002 3093164.7900000005 219517.09000000005 1.0003285000000002 1.0001745000000002 18947.940000000006 18400.450000000004
decision_type=2 2 2 2 2 2 2 2 2 2 2 2 2 2 2 2 2 2 2 2 2 2 2 2 2 2 2 2 2 2
left_child=1 2 3 28 7 6 8 10 9 20 -5 13 -10 14 -12 -16 19 18 22 24 -6 -22 23 -18 -17 -3 27 -19 29 -1
right_child=-2 25 -4 4 5 -7 -8 -9 12 -11 11 -13 -14 -15 15 16 17 26 -20 -21 21 -23 -24 -25 -26 -27 -28 -29 -30 -31
leaf_value=-0.0083001058181339637 0.092161958869443075 0.088370289103210056 0.45101835251047506 0.094365122165609411 -0.085661287796849353 -0.19817860830225051 0.10295268186617973 0.2369795818681758 -0.082775956509150511 -0.16281841649915696 0.78098828084944028 -0.19314656536398414 0.16560835694376508 0.313531216950662 -0.17853139954809932 0.18323122159137553 0.033016436700485707 -0.12259090956459323 0.22758265222589619 0.20947071488363544 0.16485358779506776 -0.055701396672764615 0.16774641006935345 -0.15198757884538538 -0.11700678217280491 -0.85853432592099921 -0.17274225793813042 0.039629878102283023 -0.043974984432590992 0.28161035980429278
leaf_weight=913 59 21 24 34 27 29 31 56 22 43 21 23 32 38 35 24 30 28 39 30 20 29 23 31 20 20 27 23 223 25
leaf_count=913 59 21 24 34 27 29 31 56 22 43 21 23 32 38 35 24 30 28 39 30 20 29 23 31 20 20 27 23 223 25
internal_value=0 -0.00221535 -0.00147368 -0.0021322 0.00405594 -0.0107296 -0.00294118 0.0112033 -0.0121387 -0.0277311 0.00610329 0.00255102 0.0222222 0.00569106 0.00151057 -0.00193548 0.00327273 -0.00547264 0.0105691 0.027027 -0.00789474 0.0102041 -0.00714286 -0.0213115 0.00454545 -0.0365854 -0.0307692 -0.0137255 -0.00594315 -0.00298507
internal_weight=0 1941 1900 1876 715 233 204 482 173 119 426 392 54 369 331 310 275 201 123 74 76 49 84 61 44 41 78 51 1161 938
internal_count=2000 1941 1900 1876 715 233 204 482 173 119 426 392 54 369 331 310 275 201 123 74 76 49 84 61 44 41 78 51 1161 938
is_linear=0
shrinkage=0.1


Tree=23
num_leaves=31
num_cat=0
split_feature=1 3 3 3 5 7 7 1 4 3 6 2 0 0 6 0 7 2 3 6 7 6 6 6 4 8 3 0 7 4
split_gain=6.1289 5.9577 5.39408 7.97014 4.25527 3.88455 7.21264 3.51628 3.81818 3.08756 11.2061 4.21693 3.92361 3.51846 9.26126 9.10349 6.39196 5.88372 12.2662 10.7067 8.99037 7.59516 5.81661 8.44275 5.56422 7.06219 5.09564 9.99972 12.6623 6.32291
threshold=69422.35000000002 1.0000305 1.0028650000000001 1.0024735 1.0000000180025095e-35 27995704.185000006 4903041.9000000013 136195.68000000002 1.0007510000000004 1.0017570000000002 2775239.0050000004 1.0013050000000001 14524.000000000002 19655.680000000004 9691003.2550000008 21695.000000000004 19333423.510000005 0.99946900000000005 1.0006855000000001 1419487.9200000002 3886319.3100000005 77632.645000000004 6767854.2250000006 4789725.9300000006 1.0014095000000001 1.0006055000000003 1.0008225000000002 14329.815000000001 4221246.5950000016 0.99916150000000015
decision_type=2 2 2 2 2 2 2 2 2 2 2 2 2 2 2 2 2 2 2 2 2 2 2 2 2 2 2 2 2 2
left_child=2 -2 3 9 7 6 -6 -3 -9 11 12 13 -11 14 22 -15 -16 19 20 -17 -19 -20 23 26 25 -23 29 28 -28 -1
right_child=1 4 -4 -5 5 -7 -8 8 -10 10 -12 -13 -14 15 16 17 -18 18 21 -21 -22 24 -24 -25 -26 -27 27 -29 -30 -31
leaf_value=0.15829476679549603 0.46693716969177967 0.072531418256919111 -0.53840944249482925 0.41337262060216812 0.068599561287327984 0.036387322835921332 -0.14925567143024787 0.10842855850556088 -0.088401237081938422 -0.16763382776831903 0.11462747131245068 0.15272936351677829 -0.4773952105654049 -0.14139554203673876 0.13751423329284998 0.0045880410210458415 0.040411950111703981 0.16832378655958052 -0.14076669845505271 -0.22813945382693698 0.0050437110038416451 -0.25875295030701795 -0.04929181196974497 0.30867106203508388 -0.071896773830306862 0.0060437755825446526 0.095326273617766799 0.20022478435423202 -0.16489060296347088 -0.02566358702903275
leaf_weight=45 25 86 37 23 27 35 39 33 21 29 37 21 36 45 50 50 46 82 35 44 209 31 54 27 20 164 111 41 46 451
leaf_count=45 25 86 37 23 27 35 39 33 21 29 37 21 36 45 50 50 46 82 35 44 209 31 54 27 20 164 111 41 46 451
internal_value=0 0.0135338 -0.00276817 -0.00194461 0.00871369 -0.00693069 -0.0212121 0.02 0 -0.00274791 -0.0196078 -0.00165394 -0.0446154 -0.00225661 0.00195178 -0.00764706 0.03125 -0.00456693 -0.000554529 -0.0276596 0.0134021 -0.0168 -0.00167742 0.000693481 -0.00976744 -0.00461538 -0.00144092 0.0121212 0.000636943 -0.00685484
internal_weight=0 266 1734 1697 241 101 66 140 54 1674 102 1572 65 1551 871 680 96 635 541 94 291 250 775 721 215 195 694 198 157 496
internal_count=2000 266 1734 1697 241 101 66 140 54 1674 102 1572 65 1551 871 680 96 635 541 94 291 250 775 721 215 195 694 198 157 496
is_linear=0
shrinkage=0.1


Tree=24
num_leaves=31
num_cat=0
split_feature=7 7 7 6 7 2 5 8 6 6 6 1 2 7 2 8 1 1 6 7 2 4 7 1 7 7 7 1 1 1
split_gain=5.71644 13.5406 6.20829 11.0161 8.46966 7.65807 9.79287 8.8285 6.59051 7.34313 18.0831 9 6.81118 6.44515 8.97436 6.07399 7.05916 5.71769 6.97133 12.6441 8.55048 7.05101 5.26787 4.5973 5.18341 13.0693 5.15476 7.1691 8.64632 6.96889
threshold=7777857.7500000009 8021790.0250000013 4562579.4750000006 15752571.200000001 3587127.7850000006 0.99995200000000006 1.0000000180025095e-35 1.0000455000000001 3175106.5400000005 367781.36500000005 219517.09000000005 24571.485000000004 1.0018200000000002 6791817.5500000007 1.0003855000000004 1.0012645000000002 1208.6000000000001 55017.060000000005 1991568.5150000001 4071235.1750000003 1.0006745000000004 1.0001100000000001 3862844.4650000003 60825.080000000009 2751365.8050000002 1958609.8100000003 1811408.8050000004 19812.960000000003 11188.135000000002 2712.0200000000004
decision_type=2 2 2 2 2 2 2 2 2 2 2 2 2 2 2 2 2 2 2 2 2 2 2 2 2 2 2 2 2 2
left_child=2 -2 4 5 8 7 -7 -4 9 10 23 -12 15 14 -8 16 -11 18 19 21 -20 -6 -23 24 25 26 27 28 29 -1
right_child=1 -3 3 -5 17 6 13 -9 -10 12 11 -13 -14 -15 -16 -17 -18 -19 20 -21 -22 22 -24 -25 -26 -27 -28 -29 -30 -31
leaf_value=0.18986450459906173 0.31585807861181908 0.0051178088382072611 -0.036814157708207472 0.32542710823417781 0.016578282191015991 -0.27467352726973843 -0.075547601887708871 0.19529351525097571 -0.13253788572363465 -0.23251421961697877 -0.58430687693560457 -0.00141697732997903 -0.46928173761299946 -0.68860271881878499 0.1991056360570892 0.38182423405608873 0.015110356133860903 0.25322609500394083 0.046354074270008733 -0.060230586377911982 -0.054251786551846426 0.41510334123034975 0.16255217166778541 0.61380641310567086 0.26961056775836018 -0.4065425494515218 0.36624092009990822 -0.21137406348119808 0.28601504223863222 -0.075994691644507312
leaf_weight=30 26 721 76 21 21 97 24 27 48 30 48 24 20 30 28 27 281 29 25 23 35 29 30 21 41 56 20 47 20 45
leaf_count=30 26 721 76 21 21 97 24 27 48 30 48 24 20 30 28 27 281 29 25 23 35 29 30 21 41 56 20 47 20 45
internal_value=0 0.0060241 -0.00502793 -0.0174917 -0.00105263 -0.022695 -0.0351955 -0.000970874 -0.00580475 -0.00338028 -0.0136364 -0.0583333 0.00670391 -0.0097561 0.0115385 0.0100592 0.00610932 0.0177083 0.0104294 0.0262136 -0.0166667 0.045 0.0627119 -0.00214286 -0.00579151 -0.0119266 0.00246914 -0.00422535 0.0115789 -0.004
internal_weight=0 747 1253 303 950 282 179 103 758 710 352 72 358 82 52 338 311 192 163 103 60 80 59 280 259 218 162 142 95 75
internal_count=2000 747 1253 303 950 282 179 103 758 710 352 72 358 82 52 338 311 192 163 103 60 80 59 280 259 218 162 142 95 75
is_linear=0
shrinkage=0.1


Tree=25
num_leaves=31
num_cat=0
split_feature=2 2 8 6 4 8 8 7 7 0 0 7 2 6 3 2 1 3 0 4 4 3 7 7 3 6 6 6 7 6
split_gain=6.07404 4.5613 7.39114 5.78391 4.75763 4.2009 3.92467 3.54363 8.36552 7.20238 5.60857 6.38673 6.14337 13.049 6.63283 9.62483 6.06442 8.80982 5.95523 6.0671 5.58332 5.72626 5.36315 6.95723 10.435 6.22605 4.75246 9.61256 4.61385 4.43112
threshold=1.0019935000000002 1.0016520000000002 1.0015705000000001 43721806.540000007 1.0014560000000003 1.0014940000000003 1.0017180000000001 2346578.5900000003 2116981.1550000007 26670.410000000003 19655.680000000004 2926744.0200000005 0.99946900000000005 2358485.4400000004 1.0009915000000003 1.0008160000000001 37649.680000000008 1.0013455000000002 63953.920000000006 1.0004615000000003 0.99997350000000018 1.0001245000000003 10621906.915000001 7512576.7600000007 1.0006890000000002 1971392.3500000003 3067857.9450000003 7643705.8000000007 3962879.6000000006 2775239.0050000004
decision_type=2 2 2 2 2 2 2 2 2 2 2 2 2 2 2 2 2 2 2 2 2 2 2 2 2 2 2 2 2 2
left_child=1 2 3 5 -4 7 -6 8 29 -10 11 -9 13 -12 18 -16 17 -17 22 -20 28 -22 23 24 25 -14 -24 -28 -13 -1
right_child=-2 -3 4 -5 6 -7 -8 10 9 -11 12 20 14 -15 15 16 -18 -19 19 -21 21 -23 26 -25 -26 -27 27 -29 -30 -31
leaf_value=-0.0091795470879031671 -0.10717979464616263 0.22476952567731653 0.037655875608774772 0.082439852271190175 -0.14990070197216343 0.19490452678734196 -0.18936353915027038 0.21967748993164002 -0.36567669556417193 0.0064705295071801677 0.0048559582824001975 -0.0446989175107535 0.075028136383842037 -0.30106431540707612 -0.11162904392681305 0.019807237308073791 0.072112633235639656 -0.12541638050172091 0.013366692253176604 0.20008199126230772 -0.11315375861369344 0.0071751613274338433 -0.13251833590184503 0.16270481442610132 -0.25931923249591277 -0.017812726035994351 0.21710037293241752 -0.11751899811025619 0.043245011547413892 0.15827917759340351
leaf_weight=333 37 37 21 54 23 24 50 44 56 24 32 20 89 34 52 41 46 25 67 52 28 455 41 35 25 47 32 43 112 21
leaf_count=333 37 37 21 54 23 24 50 44 56 24 32 20 89 34 52 41 46 25 67 52 28 455 41 35 25 47 32 43 112 21
internal_value=0 0.000356597 -0.000311526 0.0010917 -0.0276596 0.000112486 -0.039726 -0.0004561 -0.00829493 -0.0375 0.00212121 0.00864947 -0.00438729 -0.0333333 -0.00117647 -0.0182927 -0.00178571 -0.0212121 0.00533643 0.0243697 0.00601626 0.0010352 -0.00192308 0.00816327 -0.000621118 0.0102941 -0.0189655 -0.004 0.0242424 -0.00169492
internal_weight=0 1963 1926 1832 94 1778 73 1754 434 80 1320 659 661 66 595 164 112 66 431 119 615 483 312 196 161 136 116 75 132 354
internal_count=2000 1963 1926 1832 94 1778 73 1754 434 80 1320 659 661 66 595 164 112 66 431 119 615 483 312 196 161 136 116 75 132 354
is_linear=0
shrinkage=0.1


Tree=26
num_leaves=31
num_cat=0
split_feature=4 6 6 6 6 7 1 7 6 6 6 7 7 6 0 0 0 6 3 4 3 8 7 0 7 6 7 6 5 7
split_gain=7.01964 4.62169 4.55074 8.54222 7.61237 11.7029 4.39074 3.63179 7.3662 11.0863 7.95177 6.74982 6.19734 10.059 9.85229 6.13085 5.96491 5.96491 5.94984 5.58915 10.8458 8.47363 7.43741 6.95325 6.37348 6.21903 7.08217 6.96066 7.19164 9.34555
threshold=1.0014560000000003 43721806.540000007 2733002.8300000005 9920522.2400000021 534330.3550000001 2855779.5900000003 8307.720000000003 2346578.5900000003 367781.36500000005 219517.09000000005 772265.34500000009 1958609.8100000003 4071235.1750000003 1991568.5150000001 38790.450000000004 18954.135000000006 10310.800000000001 109861.43500000001 1.0015410000000002 0.99998000000000009 1.0001245000000003 0.99999950000000004 7468312.0150000006 25389.250000000004 8078408.3450000007 7775131.415000001 27995704.185000006 8735165.0600000024 1.0000000180025095e-35 18380558.395000007
decision_type=2 2 2 2 2 2 2 2 2 2 2 2 2 2 2 2 2 2 2 2 2 2 2 2 2 2 2 2 2 2
left_child=1 7 4 -4 5 6 -2 8 9 11 -10 15 13 -9 -15 16 17 -1 19 21 -21 23 -22 -14 -24 26 -26 -27 29 -29
right_child=2 -3 3 -5 -6 -7 -8 12 10 -11 -12 -13 18 14 -16 -17 -18 -19 -20 20 22 -23 24 -25 25 27 -28 28 -30 -31
leaf_value=0.16982647454019997 -0.045060890187794161 0.097082780291480875 0.10744400105173278 -0.050703974293634317 -0.27898292567902905 -0.23989568247679999 0.54331841194683261 0.13065320885816378 0.030032554893500762 -0.45536785075021352 -0.055197506845310468 -0.35003368891380682 0.022565915337991484 -0.072991897135452982 0.079455577164024294 -0.041978609530041545 0.35049772846880745 -0.076641098770275834 0.13293434316881156 -0.10183838275232411 -0.071262805401465776 0.17143966257113674 0.26756252464507935 -0.063958920834261176 0.0081614644591825655 -0.14703087736623452 0.12295740104020769 0.023575043488191689 0.037230838136727541 -0.1327180890930488
leaf_weight=38 33 52 45 30 47 25 23 247 94 48 105 32 96 63 43 52 27 30 26 68 212 31 31 45 251 23 45 29 64 45
leaf_count=38 33 52 45 30 47 25 23 247 94 48 105 32 96 63 43 52 27 30 26 68 212 31 31 45 251 23 45 29 64 45
internal_value=0 0.00139121 -0.0182266 0.00133333 -0.0296875 -0.0111111 0.0142857 0.000515759 -0.00751174 -0.0198238 0.00653266 -0.00837989 0.00310842 0.0144476 -0.0113208 0.000680272 0.0157895 0 -0.0010352 -0.00234043 -0.00598958 0.0139535 -0.00228571 0.0035461 0.0045082 0.00153173 0.0101351 -0.0142857 -0.0057971 -0.027027
internal_weight=0 1797 203 75 128 81 56 1745 426 227 199 179 1319 353 106 147 95 68 966 940 768 172 700 141 488 457 296 161 138 74
internal_count=2000 1797 203 75 128 81 56 1745 426 227 199 179 1319 353 106 147 95 68 966 940 768 172 700 141 488 457 296 161 138 74
is_linear=0
shrinkage=0.1


Tree=27
num_leaves=31
num_cat=0
split_feature=7 7 3 3 7 6 7 3 4 2 7 4 3 7 6 6 7 4 7 3 1 3 2 8 4 4 8 4 2 7
split_gain=5.70211 12.0584 9.67626 8.28396 6.69157 4.72289 6.95081 4.43565 7.00832 6.83498 6.63025 5.65811 8.89874 8.3892 6.4177 6.88231 5.19911 7.49555 5.36641 5.18295 4.50715 4.48038 4.4789 6.89868 4.22278 9.08129 8.13288 5.67543 14.4671 11.9911
threshold=1692703.0450000002 1420249.6400000004 1.0017210000000001 0.9996600000000001 1714729.6350000002 204887.47500000003 1010798.285 1.0001035000000003 0.99973300000000009 0.9994510000000002 20437196.005000006 1.0003315000000004 1.0009170000000001 50352184.230000012 308498.14500000008 270276.99500000005 4793612.1050000014 1.0000965000000004 5525157.3050000006 1.0004160000000002 16317.475000000002 0.99988100000000013 0.99990750000000006 0.99979300000000004 1.0004850000000001 1.0005745000000001 1.0006195000000002 1.0008845000000004 1.0008160000000001 2509432.9550000005
decision_type=2 2 2 2 2 2 2 2 2 2 2 2 2 2 2 2 2 2 2 2 2 2 2 2 2 2 2 2 2 2
left_child=1 2 5 -2 -5 -1 -7 8 21 -10 20 12 13 16 15 -13 17 -9 -18 -19 -11 -6 23 -20 -16 -26 -27 -28 -29 -30
right_child=3 -3 -4 4 7 6 -8 11 9 10 -12 14 -14 -15 24 -17 18 19 22 -21 -22 -23 -24 -25 25 26 27 28 29 -31
leaf_value=0.1086551489206412 0.092255446302493882 -0.2868099350640172 -0.58664475544700656 0.38683613628527064 -0.0014621743808649142 -0.19658483642898106 0.056425446313466091 0.0082027490720880652 -0.28441566603011392 -0.022891224060452561 -0.13153913856533722 -0.037861480354808574 0.30010640451371862 0.10230675929454258 -0.023167429863741741 -0.58590253057374631 -0.13602169908792353 0.22840084928819701 -0.29188578838641344 0.017780497411206905 0.049934187575391281 0.14573232961184659 -0.030947162045890056 0.089657395922826039 0.08906882600557664 -0.11279149187721726 0.095340880273087431 -0.10903347459054243 0.24133710244677911 0.0041922679150102173
leaf_weight=83 85 52 31 22 41 47 36 101 35 47 33 189 25 20 128 25 24 41 24 21 23 23 164 53 88 59 119 63 30 268
leaf_count=83 85 52 31 22 41 47 36 101 35 47 33 189 25 20 128 25 24 41 24 21 23 23 164 53 88 59 119 63 30 268
internal_value=0 -0.0148594 -0.0035533 0.00131354 -0.000240096 0.0060241 -0.0108434 -0.000973236 -0.0148515 -0.0275362 -0.0145631 0.000970874 0.00993658 0.00669643 -0.00340557 -0.0186916 0.00373832 0.0177914 -0.00490566 0.0451613 0.00285714 0.0125 -0.000414938 0.0194805 0.000927152 0.00430622 -0.000556586 0.00375 -0.00249307 0.00671141
internal_weight=0 249 197 1751 1666 166 83 1644 202 138 103 1442 473 448 969 214 428 163 265 62 70 64 241 77 755 627 539 480 361 298
internal_count=2000 249 197 1751 1666 166 83 1644 202 138 103 1442 473 448 969 214 428 163 265 62 70 64 241 77 755 627 539 480 361 298
is_linear=0
shrinkage=0.1


Tree=28
num_leaves=31
num_cat=0
split_feature=4 7 7 3 3 7 6 6 7 6 3 1 6 0 3 5 2 0 8 4 6 1 1 6 6 1 0 3 2 2
split_gain=6.40512 5.12935 12.4253 4.85583 6.52181 4.71998 5.21735 5.86325 4.69025 5.5282 7.08762 4.45873 4.35981 4.30837 3.80195 6.4 4.70048 5.99849 7.71923 3.3 3.29198 3.28992 6.11721 4.76214 5.36135 4.71436 7.71755 4.63566 4.42165 9.37964
threshold=0.99886950000000019 44221262.905000009 41092540.100000009 1.0028650000000001 1.0024735 62692952.68500001 9376728.7450000029 43721806.540000007 997305.89500000014 190536.00500000003 1.0010480000000002 60105.250000000007 219517.09000000005 206.79000000000002 0.99956350000000016 1.0000000180025095e-35 0.99943950000000015 29991.550000000003 0.99946550000000012 1.0000325000000003 299630.85500000004 26591.985000000004 29647.590000000004 257376.11500000002 750374.44500000018 22429.065000000006 27311.500000000004 1.0010065000000001 1.0002945000000001 1.0005840000000001
decision_type=2 2 2 2 2 2 2 2 2 2 2 2 2 2 2 2 2 2 2 2 2 2 2 2 2 2 2 2 2 2
left_child=11 2 3 4 8 -3 -7 -8 9 10 -2 -1 -5 -10 15 -15 17 20 -19 -11 -16 25 -23 28 27 -18 -27 -25 -24 -30
right_child=1 5 -4 12 -6 6 7 -9 13 19 -12 -13 -14 14 16 -17 21 18 -20 -21 -22 22 23 24 -26 26 -28 -29 29 -31
leaf_value=0.02275860169611146 0.21725942697548206 0.091627895773225942 -0.20630169204392362 0.1924152533815526 0.32912296913140504 0.051533569931400305 -0.10007734564130005 0.033513943689087812 -0.093438343253713529 -0.055147007403525718 -0.19654813404937901 0.69392378971757374 -0.66736021699280013 0.099857512964794032 -0.08212861116287383 -0.0056417552658314836 -0.0011472368564024269 -0.059145122611885606 -0.24628410834084244 -0.48298261007509657 0.02527244420217567 0.1742141425303762 0.016219175481867427 0.2476998029392018 0.0030137370180115309 -0.012375361379828798 -0.18545837803517193 0.0023907432463659006 -0.074202881972324858 0.02156419293166234
leaf_weight=36 35 43 24 21 24 22 24 39 32 24 25 20 20 20 29 20 775 27 22 20 60 60 51 43 314 66 20 26 30 28
leaf_count=36 35 43 24 21 24 22 24 39 32 24 25 20 20 20 29 20 775 27 22 20 60 60 51 43 314 66 20 26 30 28
internal_value=0 -0.00216049 -0.00352423 -0.00256696 -0.00177042 0.0171875 0.00352941 -0.0111111 -0.00248987 -0.0230769 -0.00333333 0.0321429 -0.0365854 -0.00117067 -0.000439975 0.03 -0.00122502 -0.0188406 -0.0469388 -0.05 -0.00337079 0.0004954 0.00652174 0.00284553 0.00809399 -0.00336818 -0.0255814 0.0333333 -0.0155963 -0.0344828
internal_weight=0 1944 1816 1792 1751 128 85 63 1727 104 60 56 41 1623 1591 40 1551 138 49 44 89 1413 552 492 383 861 86 69 109 58
internal_count=2000 1944 1816 1792 1751 128 85 63 1727 104 60 56 41 1623 1591 40 1551 138 49 44 89 1413 552 492 383 861 86 69 109 58
is_linear=0
shrinkage=0.1


Tree=29
num_leaves=31
num_cat=0
split_feature=8 4 7 7 7 6 6 7 7 2 4 2 1 0 7 2 8 7 6 2 7 5 7 0 8 2 1 7 6 5
split_gain=4.12292 3.66215 3.24377 7.83206 8.01445 6.61763 6.55941 5.30642 5.13158 4.27681 3.63947 9.02 6.15536 4.91327 7.45201 5.8351 6.8125 6.49621 6.76051 6.38501 5.54542 4.66667 4.2912 6.0624 6.55848 7.14286 5.14469 4.89925 4.27622 4.81233
threshold=1.0026990000000002 0.9985750000000001 1692703.0450000002 1315728.3450000002 997305.89500000014 204887.47500000003 201827.15000000002 1737393.9300000004 688144.08000000019 0.99973050000000008 0.99973300000000009 0.9991945000000001 12291.410000000002 57467.80000000001 15344219.260000002 1.0009600000000003 1.0002205000000004 44221262.905000009 7643705.8000000007 1.0002945000000001 12557609.300000003 1.0000000180025095e-35 18380558.395000007 83384.020000000004 1.0006470000000001 1.0008505000000001 51065.015000000007 7376842.0150000015 2358485.4400000004 1.0000000180025095e-35
decision_type=2 2 2 2 2 2 2 2 2 2 2 2 2 2 2 2 2 2 2 2 2 2 2 2 2 2 2 2 2 2
left_child=1 -1 3 4 5 8 -5 -4 -3 -6 12 -12 21 14 20 16 -16 18 19 -18 -13 -9 23 28 27 -26 -24 -25 -15 -30
right_child=-2 2 7 6 9 -7 -8 10 -10 -11 11 13 -14 22 15 -17 17 -19 -20 -21 -22 -23 26 24 25 -27 -28 -29 29 -31
leaf_value=0.51039615596055454 -0.31860429726195488 0.051670246961969826 0.34944623358810728 -0.36952483193517505 0.095801090275921347 -0.33911218588417036 -0.22491184750364823 0.20824376915497536 -0.076496471818016512 0.0021632814252211751 -0.27384753358964414 -0.00068158548563653225 0.0014963290481146531 0.070303232517711187 -0.059304647041858331 -0.090069611077170028 0.19230198727891412 0.062501124093714111 -0.10252635027451902 -0.042740406027940353 0.1788646040452723 0.017376879831223546 0.056000893246608376 0.14872492708238463 -0.18075050316434399 0.0064549472560403668 0.02931411396818431 -0.010173239371904452 0.1067230450271808 -0.016365142905771492
leaf_weight=40 29 40 31 20 28 37 37 21 38 31 39 919 100 33 87 20 23 44 38 35 51 21 32 23 28 28 52 22 21 32
leaf_count=40 29 40 31 20 28 37 37 21 38 31 39 919 100 33 87 20 23 44 38 35 51 21 32 23 28 28 52 22 21 32
internal_value=0 5.07357e-05 -0.000569653 -0.0116883 -0.00114943 -0.0165217 -0.0438596 0.000941176 0 0.0288136 0.000179748 -0.00124427 0.015493 0 -0.00271159 -0.0182186 -0.0136564 0 -0.0145833 0.00689655 0.00123711 0.047619 0.0121771 0.00374332 -0.0128713 -0.0357143 0.0309524 0.0155556 0.0232558 0.00566038
internal_weight=0 1971 1931 231 174 115 57 1700 78 59 1669 1527 142 1488 1217 247 227 140 96 58 970 42 271 187 101 56 84 45 86 53
internal_count=2000 1971 1931 231 174 115 57 1700 78 59 1669 1527 142 1488 1217 247 227 140 96 58 970 42 271 187 101 56 84 45 86 53
is_linear=0
shrinkage=0.1


Tree=30
num_leaves=31
num_cat=0
split_feature=3 3 0 0 6 3 3 0 8 0 5 1 6 1 3 6 6 7 0 5 7 1 0 8 7 7 1 6 1 7
split_gain=4.12896 5.98791 3.62191 8.70553 13.1095 9.1746 8.8255 7.52122 7.98739 7.01625 7.28259 6.08975 4.64503 4.43306 5.15714 4.27497 8.66344 4.22977 4.08646 5.04544 8.00625 9.09696 6.60837 8.05171 6.53445 7.21429 4.8525 4.30561 4.0603 3.75576
threshold=1.0028650000000001 1.0024735 35044.570000000014 20443.845000000005 1971392.3500000003 1.0013455000000002 0.9996830000000001 36961.100000000006 0.9998260000000001 26496.850000000002 1.0000000180025095e-35 39112.55000000001 2837421.2350000008 11308.860000000002 1.0006890000000002 9920522.2400000021 5164757.7300000014 4614039.2000000002 42890.100000000006 -1.0000000180025095e-35 27995704.185000006 18189.760000000006 96558.080000000016 1.0006055000000003 14382160.160000002 2667754.0500000003 31022.980000000003 886737.54000000015 11308.860000000002 1652510.0000000002
decision_type=2 2 2 2 2 2 2 2 2 2 2 2 2 2 2 2 2 2 2 2 2 2 2 2 2 2 2 2 2 2
left_child=1 2 3 6 5 9 11 -4 17 13 -11 28 -6 -5 -15 16 -14 -9 -10 22 21 -21 -20 -24 25 -23 -27 -28 -1 -8
right_child=-2 -3 7 4 12 -7 29 8 18 10 -12 -13 15 14 -16 -17 -18 -19 19 20 -22 24 23 -25 -26 26 27 -29 -30 -31
leaf_value=0.054797336296368293 -0.28052385002845454 0.29627883076682809 0.12827203023149436 -0.1264963871268508 -0.20705991546505201 -0.07544930425940026 -0.057515968927676457 -0.015437287290143454 -0.015389257588226469 0.022467413488204802 0.13969901286371098 0.47567784253753409 -0.11934468516386183 0.22059974226087695 -0.011069666693282266 -0.11290142710340388 0.1105716611397598 -0.22955637893373662 0.058011149637124171 0.039514290245475682 0.062468648874882154 -0.15322689524809779 0.060521526235570014 -0.12209004790571985 -0.13123882472074894 -0.048197858846652022 -0.042269855594154061 0.095023752159678787 -0.010643553275242268 0.0019548337830424312
leaf_weight=28 41 24 39 34 24 27 113 35 66 56 27 24 35 21 24 36 23 37 99 71 47 30 24 31 21 20 28 41 31 843
leaf_count=28 41 24 39 34 24 27 113 35 66 56 27 24 35 21 24 36 23 37 99 71 47 30 24 31 21 20 28 41 31 843
internal_value=0 0.000357325 -0.000258398 -0.00312036 -0.0179153 -0.0015873 0.0012512 0.00628183 0.00327273 0.00740741 0.0277108 0.0325301 -0.0440678 -0.0139241 0.00666667 -0.0340426 -0.0172414 -0.0277778 0.00794979 0.0116505 0.00310078 -0.00521327 0.025974 -0.00181818 -0.02 -0.0109244 0.00337079 0.015942 0.0152542 -0.00146444
internal_weight=0 1959 1935 1346 307 189 1039 589 550 162 83 83 118 79 45 94 58 72 478 412 258 211 154 55 140 119 89 69 59 956
internal_count=2000 1959 1935 1346 307 189 1039 589 550 162 83 83 118 79 45 94 58 72 478 412 258 211 154 55 140 119 89 69 59 956
is_linear=0
shrinkage=0.1


Tree=31
num_leaves=31
num_cat=0
split_feature=1 1 7 8 1 8 3 7 3 6 7 8 8 1 4 3 2 3 0 3 4 5 8 6 5 6 6 4 6 3
split_gain=3.86806 10.4443 4.35292 5.53588 5.11188 6.12347 9.15166 4.04209 4.00132 3.75972 3.71536 8.06095 6.53058 6.75915 4.29624 4.18551 6.34707 8.33385 5.1785 4.39021 5.24252 7.79191 4.80291 4.168 5.10319 4.08982 11.3678 7.45914 5.06847 6.82765
threshold=3325.6450000000004 2378.1000000000008 11052648.780000001 0.99967550000000005 818.90500000000009 1.0001550000000001 1.0009785000000002 4285417.4750000006 1.0000075000000004 1522217.0900000003 1692703.0450000002 1.0010910000000002 0.99926250000000005 37909.595000000008 0.99935400000000019 0.99988100000000013 0.99998150000000019 1.0005795000000004 4272.1200000000008 1.0000265000000004 1.0000015000000002 1.0000000180025095e-35 0.99995550000000011 3175106.5400000005 1.0000000180025095e-35 2733002.8300000005 2563606.3600000008 1.0001745000000002 3527911.5050000004 1.0010285000000001
decision_type=2 2 2 2 2 2 2 2 2 2 2 2 2 2 2 2 2 2 2 2 2 2 2 2 2 2 2 2 2 2
left_child=1 2 3 8 7 -6 -7 -5 -1 -3 11 14 13 -12 -2 18 17 19 -14 -17 22 -22 -21 24 -24 26 -18 -27 -29 -30
right_child=10 9 -4 4 5 6 -8 -9 -10 -11 12 -13 15 -15 -16 16 25 -19 -20 20 21 -23 23 -25 -26 27 -28 28 29 -31
leaf_value=0.010799626606258484 -0.041347260216226034 -0.0957916751537949 0.031836196473551362 -0.0005766720444657814 0.14300327162079898 -0.040738859553771288 0.13863540805492974 -0.25456581923551608 -0.36315260017732343 -0.14717740858403758 0.18084841763137899 -0.51390270674054384 0.035442600002774709 0.3026674697779102 0.0034021516075647632 0.05599433975204713 -0.0060254366191561442 0.25869433024867305 -0.071791066057379824 -0.097633659918630961 0.10268213575142156 -0.020367766540051391 0.054580794769632714 0.090660176172272441 -0.05412722269680368 -0.085629515618450253 -0.4194679932779215 0.033972504740121701 0.051519439283419205 -0.01341440287166964
leaf_weight=21 31 37 53 72 22 41 27 27 27 29 25 35 24 22 144 40 531 48 47 87 46 30 29 33 28 35 20 71 173 145
leaf_count=21 31 37 53 72 22 41 27 27 27 29 25 35 24 22 144 40 531 48 47 87 46 30 29 33 28 35 20 71 173 145
internal_value=0 -0.00955056 -0.00137931 -0.007173 0.000529101 0.0177778 0.00294118 -0.0151515 -0.0375 -0.0454545 0.00194647 -0.0104762 0.00376569 0.0404255 -0.00171429 0.00252343 0.00379939 0.0155425 -0.0211268 0.00921502 0.00434783 0.0263158 -0.00508475 0.0111111 -0.00526316 -0.000307692 -0.00598911 0.00707547 0.011054 0.00566038
internal_weight=0 356 290 237 189 90 68 99 48 66 1644 210 1434 47 175 1387 1316 341 71 293 253 76 177 90 57 975 551 424 389 318
internal_count=2000 356 290 237 189 90 68 99 48 66 1644 210 1434 47 175 1387 1316 341 71 293 253 76 177 90 57 975 551 424 389 318
is_linear=0
shrinkage=0.1


Tree=32
num_leaves=31
num_cat=0
split_feature=0 0 6 8 0 3 7 6 3 6 6 1 8 7 6 4 1 4 2 4 0 4 1 3 8 8 1 0 1 1
split_gain=3.75918 5.66707 3.84464 4.66667 3.74612 8.85952 3.2845 6.08483 8.9379 10.5761 8.09068 7.21092 6.54699 5.50532 10.7947 9.44125 8.28955 7.81399 5.44147 5.18205 4.92424 4.26682 4.24047 3.84127 3.47632 3.92076 3.79043 6.6 4.65832 4.19255
threshold=188972.84000000005 273244.4250000001 43721806.540000007 1.0004875000000002 128536.70500000002 1.0010480000000002 13655802.250000002 6079069.6000000006 1.0000760000000002 8082724.7400000012 3432758.8100000005 29470.000000000004 1.0025695000000001 18380558.395000007 7603863.3450000007 1.0000495000000003 17429.285000000003 0.99999950000000004 1.0000415000000002 0.9999340000000001 25389.250000000004 1.0002225000000002 32488.240000000002 1.0008100000000002 0.99869050000000004 0.9992970000000001 21926.675000000003 28099.020000000004 18663.450000000004 19065.960000000003
decision_type=2 2 2 2 2 2 2 2 2 2 2 2 2 2 2 2 2 2 2 2 2 2 2 2 2 2 2 2 2 2
left_child=2 -2 4 -4 6 -6 7 10 -9 -10 11 12 24 16 15 19 -8 -16 -11 -15 -12 -19 -13 -23 -1 -26 28 -28 -27 -30
right_child=1 -3 3 -5 5 -7 13 8 9 18 20 22 -14 14 17 -17 -18 21 -20 -21 -22 23 -24 -25 25 26 27 -29 29 -31
leaf_value=-0.027340727581856329 0.079777386713273057 -0.029055117761472807 0.14224167297712006 0.0068128425922169946 0.036215961257266248 -0.1360528292397481 0.0048096000665962205 -0.14446025185459851 0.49575306895431404 0.062301025819578415 -0.0016933614525140419 0.14592676818159553 -0.47568760785847602 0.0037007746381951452 0.086297397022574648 0.10325501404659557 -0.13170193930053439 -0.13675288803004054 0.0091968366237033979 -0.083961241412371115 -0.16655479664693945 -0.0054611496195142717 0.012784841212800466 -0.080684261381355052 0.037591676156180837 -0.003143515690336213 -0.0093601563620384198 -0.29694608060261329 0.22064526779431387 0.013083733864970127
leaf_weight=26 28 26 24 32 28 20 40 21 22 33 44 31 23 25 22 88 57 20 103 22 52 42 321 21 35 615 80 30 21 48
leaf_count=26 28 26 24 32 28 20 40 21 22 33 44 31 23 25 22 88 57 20 103 22 52 42 321 21 35 615 80 30 21 48
internal_value=0 0.0259259 -0.000822199 0.025 -0.0015873 -0.0291667 -0.000868621 0.00112957 0.0184358 0.0265823 -0.00120664 0.00097561 -0.00387244 -0.00979228 -0.00166667 0.017037 -0.0298969 -0.0257143 0.0161765 -0.0191489 -0.0291667 -0.039759 0.0130682 -0.0269841 -0.00245614 -0.0013269 -0.00277078 -0.02 0 0.0246377
internal_weight=0 54 1946 56 1890 48 1842 1505 179 158 1326 1230 878 337 240 135 97 105 136 47 96 83 352 63 855 829 794 110 684 69
internal_count=2000 54 1946 56 1890 48 1842 1505 179 158 1326 1230 878 337 240 135 97 105 136 47 96 83 352 63 855 829 794 110 684 69
is_linear=0
shrinkage=0.1


Tree=33
num_leaves=31
num_cat=0
split_feature=7 7 0 0 3 6 6 6 6 3 7 1 6 0 6 0 0 0 2 6 8 1 0 6 6 6 7 3 7 7
split_gain=2.8207 9.31269 8.47266 6.81581 10.4939 6.60472 5.81541 10.0909 7.91138 11.9845 6.66107 8.8511 6.14902 4.78399 10.7006 8.70527 4.48123 5.22682 5.21351 8.53299 7.77316 5.87254 4.42623 7.97838 5.74406 13.1573 5.56955 4.36611 4.1621 4.1193
threshold=3116567.9150000005 4071235.1750000003 271.95000000000005 19655.680000000004 0.9996830000000001 5478033.9900000012 367781.36500000005 246955.90000000002 534330.3550000001 1.0019805000000004 2926744.0200000005 8958.2500000000018 1476162.8700000003 22468.980000000003 1616965.5850000002 6577.7350000000006 395.50500000000005 13956.610000000002 0.99985650000000004 11433231.945000002 0.99990900000000005 78091.545000000013 33576.465000000004 313017.94000000006 4561124.080000001 9376728.7450000029 102347578.17500003 1.0015350000000003 18380558.395000007 688144.08000000019
decision_type=2 2 2 2 2 2 2 2 2 2 2 2 2 2 2 2 2 2 2 2 2 2 2 2 2 2 2 2 2 2
left_child=5 13 -3 4 -4 6 7 29 -8 10 11 12 -10 14 15 -2 -6 18 20 21 -18 -20 23 -5 -25 -26 -24 -15 -21 -1
right_child=1 2 3 22 16 -7 8 -9 9 -11 -12 -13 -14 27 -16 -17 17 -19 19 28 -22 -23 26 24 25 -27 -28 -29 -30 -31
leaf_value=0.05189347246133065 0.17871843212732219 -0.11488276854034059 0.11202116590389664 0.047254333208703439 0.2490718662458177 -0.21355180774076216 0.070352073883641911 -0.41478714513957149 -0.17896564216636693 -0.46060158604624846 -0.095817128901545909 0.051984675487236759 0.071674254910778154 0.15701226610121194 -0.18542818761314916 -0.039879177696335512 -0.003294396991515347 0.041274505125114262 -0.040232762740745026 0.23468331590561414 0.0975652431908961 0.046217313479139974 -0.0044175667837126342 -0.14623863989933314 0.21300631063550438 -0.099551953363527845 0.031067842362083365 0.012917001472926315 0.0078723512217640096 -0.04813987949487647
leaf_weight=47 37 25 29 33 20 21 43 41 51 22 44 152 34 82 38 31 42 100 228 21 35 21 363 66 21 43 27 21 29 233
leaf_count=47 37 25 29 33 20 21 43 41 51 22 44 152 34 82 38 31 42 100 228 21 35 21 363 66 21 43 27 21 29 233
internal_value=0 0.00121951 -0.00244787 -0.00111317 0.00704762 -0.00668605 -0.00494753 -0.0146417 0.00404624 -0.00165017 0.00391459 0.0105485 -0.0152941 0.0205742 0.00566038 0.0294118 0.00362903 0.00168067 -0.0037234 -0.009699 0.0194805 -0.0172691 -0.00886076 -0.0226994 -0.0338462 -0.0125 -0.00307692 0.0359223 0.028 -0.00785714
internal_weight=0 1312 1103 1078 525 688 667 321 346 303 281 237 85 209 106 68 496 476 376 299 77 249 553 163 130 64 390 103 50 280
internal_count=2000 1312 1103 1078 525 688 667 321 346 303 281 237 85 209 106 68 496 476 376 299 77 249 553 163 130 64 390 103 50 280
is_linear=0
shrinkage=0.1


Tree=34
num_leaves=31
num_cat=0
split_feature=2 2 1 8 8 1 6 1 5 8 4 4 8 4 4 1 1 0 6 2 7 6 2 8 5 3 1 3 1 0
split_gain=3.38294 4.70155 5.11082 4.44816 3.81483 5.39401 3.01408 2.31018 4.40011 5.43478 5.12512 4.74131 3.74977 2.9 2.98256 2.77417 2.52718 3.88777 2.66393 4.69084 4.32511 4.21476 3.71106 6.36789 3.38645 3.27561 3.07986 5.62546 5.23932 7.18487
threshold=1.0023885000000001 1.0016520000000002 38803.370000000003 1.0016770000000002 1.0017660000000002 9110.2350000000024 86279769.575000018 76454.365000000005 -1.0000000180025095e-35 0.99995250000000013 1.0001305000000003 1.0007345000000003 1.0003275000000003 1.0016660000000004 1.0015015 112671.18000000001 58646.645000000011 8900.1450000000023 11433231.945000002 0.99976850000000017 37911679.350000001 18155295.750000004 1.0010455000000003 1.0011815000000002 -1.0000000180025095e-35 1.0014250000000002 26591.985000000004 0.9994360000000001 37909.595000000008 2690.0700000000002
decision_type=2 2 2 2 2 2 2 2 2 2 2 2 2 2 2 2 2 2 2 2 2 2 2 2 2 2 2 2 2 2
left_child=1 3 -3 6 -5 -6 7 13 11 -10 -11 12 -9 14 16 -12 18 -18 20 -20 22 -21 23 26 -22 -25 27 -1 -28 -30
right_child=-2 2 -4 4 5 -7 -8 8 9 10 15 -13 -14 -15 -16 -17 17 -19 19 21 24 -23 -24 25 -26 -27 28 -29 29 -31
leaf_value=0.031185965172000858 -0.46510498220767132 0.30207940500814634 -0.044645109332339006 -0.20404589694323444 -0.2600513669221422 0.087325708934338137 0.15049451843244346 0.034168595669953165 0.29010265606310587 -0.080186848619048012 -0.10003233348723056 -7.9960518112809356e-05 0.15095591853235471 -0.21146396139179713 0.10646571026739471 0.013042946509935717 -0.055337904248483775 -0.016053654626303381 -0.14938508730537153 0.19322793006405548 -0.019239557786566986 0.0051415363954717052 0.077940344236444109 -0.42781427710342257 -0.0014678647193767437 -0.011656110383592599 0.046424668709009881 -0.0094701071602755205 0.15483854259661581 -0.013540514923382853
leaf_weight=27 23 31 20 21 20 27 22 36 23 20 34 39 23 20 31 38 25 68 20 36 24 53 73 23 28 28 160 854 20 133
leaf_count=27 23 31 20 21 20 27 22 36 23 20 34 39 23 20 31 38 25 68 20 36 24 53 73 23 28 28 160 854 20 133
internal_value=0 -0.000556399 0.0294118 -0.00134995 -0.0264706 -0.0106383 -0.000430571 -0.00087146 0.00892019 -0.00434783 -0.0152174 0.0244898 0.0423729 -0.0021565 -0.00168434 -0.00277778 -0.00229008 -0.0182796 -0.00128465 0.0137615 -0.00248175 0.0235955 -0.00136571 -0.0026506 -0.0307692 -0.0372549 -0.00117253 -0.00419977 0.00734824 -0.00588235
internal_weight=0 1977 51 1926 68 47 1858 1836 213 115 92 98 59 1623 1603 72 1572 93 1479 109 1370 89 1318 1245 52 51 1194 881 313 153
internal_count=2000 1977 51 1926 68 47 1858 1836 213 115 92 98 59 1623 1603 72 1572 93 1479 109 1370 89 1318 1245 52 51 1194 881 313 153
is_linear=0
shrinkage=0.1


Tree=35
num_leaves=31
num_cat=0
split_feature=3 0 2 2 7 6 6 6 6 8 6 0 7 6 1 4 0 1 3 4 1 5 6 6 7 6 0 8 2 3
split_gain=3.56096 4.2108 3.38041 7.30561 6.22404 4.04193 3.84731 3.74435 7.2957 5.54592 5.45722 6.91429 6.58497 7.17987 4.44449 4.51023 4.11699 4.50486 4.04923 4.26904 3.90055 4.39666 5.1763 13.9999 6.41158 8.01408 6.85607 6.02083 6.82933 5.0018
threshold=0.9996830000000001 29991.550000000003 0.99941450000000009 0.99935050000000014 1934649.9300000002 4344974.9450000012 246955.90000000002 5164757.7300000014 4126874.8650000007 1.0025245000000003 7775131.415000001 60047.000000000007 9626599.0250000022 8735165.0600000024 48633.445000000007 1.0013260000000004 67278.395000000004 87281.22500000002 1.0024735 1.0018630000000002 69422.35000000002 -1.0000000180025095e-35 225656.53000000003 299630.85500000004 4793612.1050000014 3240229.2850000006 11105.740000000002 1.0001705000000001 1.0003675000000001 1.0000265000000004
decision_type=2 2 2 2 2 2 2 2 2 2 2 2 2 2 2 2 2 2 2 2 2 2 2 2 2 2 2 2 2 2
left_child=1 -1 3 4 -2 6 -6 8 9 18 11 -9 14 -14 15 -12 -15 -18 19 20 21 22 -4 -24 26 27 -25 -26 -29 -23
right_child=2 -3 7 -5 5 -7 -8 10 -10 -11 12 -13 13 16 -16 -17 17 -19 -20 -21 -22 29 23 24 25 -27 -28 28 -30 -31
